\data\
ngram 1=2257
ngram 2=2921

\1-grams:
-99.999	!ENTER	-1.3665
-3.2110	aaLL	-1.2989
-4.5120	aaLLaa
-3.5120	aaLLaap0ooLL	-1.2992
-4.5120	aaLLk0ee
-3.5120	aaLLllyvc0yv	-1.2990
-3.5120	aaLLmmaaC0xxNN	-1.2997
-2.8131	aaNN	-1.2993
-2.6669	aaNNC0aa	-1.3649
-3.2110	aaNNC0aas0vv	-1.2978
-4.5120	aaNNHHaaSSnnxxnnyaee
-2.9100	aaNNHHaaSSt0aa	-1.8587
-3.2110	aaNNHHk0ee	-1.3008
-3.2110	aaNNHHk0oo	-1.3008
-3.2110	aaNNHHnnxxNN	-1.3008
-2.8131	aaNNHHnnxxNNt0aa	-1.9556
-3.5120	aaNNHHnnxxNNt0ee	-1.3008
-3.5120	aaNNHHnnxxnnya	-1.2566
-4.5120	aaNNHHt0aa
-3.5120	aaNNHHt0vvNN	-1.2996
-3.2110	aaNNHHxxNN	-1.3008
-3.5120	aaNNHHxxNNk0aa	-1.2566
-3.2110	aaNNHHxxmmyvNN	-1.3006
-3.5120	aaNNHHxxmmyvNNs0vvt0oo	-1.3009
-3.2110	aaNNee	-1.3008
-3.2110	aaNNees0vv	-1.3002
-3.5120	aaNNk0eek0aa	-1.3009
-3.5120	aaNNk0iik0iimmaaNN	-1.3001
-3.2110	aaNNk0oo	-1.2985
-3.2110	aaP0chuuK0t0wek0oo	-1.3008
-3.5120	aaP0chuuK0t0wevv	-1.2992
-3.5120	aaPH	-1.3009
-3.5120	aaPHees0vv	-1.2982
-3.2110	aaPHs0eeuuk0oo	-1.3006
-4.5120	aac0iiK0
-3.5120	aac0iiK0t0oo	-1.3009
-3.5120	aac0iillaangiinnxxNN	-1.3008
-3.5120	aac0uu	-1.3008
-3.5120	aacciiLLhheeSSt0aa	-1.2566
-3.2110	aahhooP0	-1.3006
-3.5120	aaiit0xxLLeek0ee	-1.3009
-3.2110	aaiit0xxLLii	-1.3008
-3.5120	aaiit0xxLLk0wa	-1.3004
-3.5120	aaiit0xxLLxi	-1.3009
-2.5120	aaiit0xxLLxxNN	-1.3452
-3.5120	aakhaas0iiaakkooCHii	-1.3009
-3.5120	aakkaap0uuthvv	-1.2998
-3.5120	aakkaawvs0vvyvSSt0aa	-1.2566
-3.5120	aallaangk0ooS0hhaac0ii	-1.3008
-3.5120	aallee	-1.3008
-3.5120	aalleephyvNNxxlloo	-1.2982
-3.0349	aallxxMMt0aaP0k0ee	-1.3006
-3.2110	aallxxMMt0aaP0k0oo	-1.3005
-3.5120	aallxxMMt0aaP0k0vvnnaa	-1.3008
-3.5120	aallxxMMt0aaP0t0aannxxNN	-1.2997
-3.5120	aallxxMMt0aauuMMii	-1.3009
-3.5120	aallxxMMt0aauuMMiillaaNN	-1.3009
-3.5120	aallxxMMt0aauuMMmmaaNNxxLL	-1.3009
-2.8131	aallxxMMt0aauuMMxxNN	-1.2998
-3.5120	aallxxMMt0aauuMMxxlloo	-1.3009
-2.8131	aallxxMMt0aauuNN	-1.2998
-4.5120	aammuullii
-3.5120	aammuuthxxNN	-1.3008
-3.5120	aanneennxxNN	-1.3009
-3.5120	aanneexi	-1.3009
-3.5120	aanniiLL	-1.3002
-3.0349	aanniiNN	-1.3004
-3.5120	aanniihheet0oo	-1.3009
-2.9100	aanniik0oo	-1.2998
-3.5120	aanniik0vvt0xxNN	-1.2566
-2.8131	aanniillaa	-1.2997
-3.5120	aanniillaaNN	-1.3008
-4.5120	aanniillaak0oo
-3.5120	aanniimmyvNN	-1.3006
-3.5120	aanniinnii	-1.2566
-3.2110	aanniit0aa	-1.5577
-3.5120	aanniiya	-1.2566
-3.5120	aannxxNNc0ii	-1.3009
-3.5120	c0aaK0k0aat0xxLLee	-1.3008
-3.5120	c0aaK0k0aat0xxLLxi	-1.3009
-3.5120	c0aaK0k0aat0xxLLxxNN	-1.2996
-3.5120	c0aaK0k0aaxi	-1.3009
-3.5120	c0aaK0phuuMMiit0aa	-1.2566
-4.5120	c0aaK0yongiit0aa
-2.6089	c0aaLL	-1.2988
-3.5120	c0aaMMc0aakhoo	-1.3009
-3.5120	c0aaMMk0xxk0oo	-1.3006
-3.5120	c0aaNNt0ii	-1.3009
-3.5120	c0aaNNt0iiee	-1.3008
-3.2110	c0aaNNt0iik0aa	-1.3008
-3.5120	c0aaNNt0iillxxLL	-1.3009
-3.5120	c0aaNNt0iip0aaTHee	-1.3008
-3.5120	c0aaP0aat0aak0aa	-1.3009
-3.5120	c0aaP0c0aannxxNN	-1.3008
-3.5120	c0aaP0choowa	-1.3009
-3.5120	c0aaP0hhiiLL	-1.2997
-3.5120	c0aaP0k0oo	-1.2989
-3.5120	c0aaP0mmooK0k0wa	-1.3009
-2.9100	c0aak0ii	-1.4254
-3.5120	c0aak0iit0oo	-1.3006
-3.5120	c0aak0iixi	-1.3009
-3.5120	c0aak0oo	-1.3009
-3.5120	c0aakkuu	-1.3008
-3.2110	c0aakkuummaaNN	-1.2994
-4.5120	c0aallaas0vvnnxxNN
-3.5120	c0aalliic0aaP0nnxxNN	-1.3008
-3.5120	c0aalliieennxxNN	-1.3009
-3.5120	c0aalliillxxLL	-1.3009
-3.5120	c0aangchiillxxLL	-1.3009
-3.5120	c0aangk0iiphaaNNt0oo	-1.3009
-3.5120	c0aangllxx	-1.3009
-3.5120	c0aangs0aak0aa	-1.3005
-3.5120	c0aangs0aallxxLL	-1.3005
-3.5120	c0aas0eehhii	-1.3009
-3.5120	c0aas0iiNNiiLL	-1.3004
-3.5120	c0aayus0xxllvvNN	-1.3009
-3.5120	c0aayvNNk0wa	-1.3008
-3.5120	c0aayvNNs0xxllvvP0k0ee	-1.3009
-3.5120	c0ee	-1.3008
-3.5120	c0eechaangc0oot0weNN	-1.3009
-3.5120	c0eechooK0hhaaNNt0aak0oo	-1.3008
-3.5120	c0eechooK0xxLL	-1.3001
-3.5120	c0eek0aaK0k0ii	-1.3006
-3.5120	c0eek0uus0vvngt0weNN	-1.3008
-3.5120	c0eek0wac0vvMMeellxxLL	-1.3009
-3.5120	c0eemmiiiiSSnnxxNN	-1.3009
-3.5120	c0eemmvvS0t0eelloo	-1.3008
-3.5120	c0ees0iihhaak0ooc0aa	-1.2982
-3.5120	c0eet0eelloo	-1.3009
-3.5120	c0ii	-1.3004
-3.5120	c0iiK0c0vvP0	-1.3009
-3.5120	c0iiK0hhuuee	-1.3009
-3.5120	c0iiLL	-1.3009
-3.5120	c0iiLLllvv	-1.3008
-3.5120	c0iiLLs0eeK0iivvSSt0aa	-1.2566
-3.5120	c0iiMMs0xxngii	-1.3009
-3.5120	c0iiMMs0xxngt0oo	-1.3009
-3.5120	c0iiNN	-1.3009
-3.2110	c0iiNNt0aaLLlleek0aa	-1.3005
-3.5120	c0iiP0c0uungxxLL	-1.3008
-3.2110	c0iiP0ee	-1.2989
-3.5120	c0iiP0ees0vv	-1.3009
-3.2110	c0iiP0vv	-1.3005
-3.5120	c0iiS0ii	-1.3009
-4.5120	c0iiS0k0oo
-3.5120	c0iiTHk0oo	-1.3009
-3.2110	c0iic0vvk0wik0oo	-1.3006
-3.5120	c0iichiiNN	-1.3009
-3.5120	c0iichiik0oo	-1.3008
-3.5120	c0iichvvNNxxlloo	-1.3006
-3.5120	c0iichyv	-1.3009
-3.5120	c0iihhyangc0vvMMxxLL	-1.3009
-4.5120	c0iihhyet0aa
-4.5120	c0iihhyet0oo
-3.5120	c0iik0oo	-1.3009
-3.2110	c0iik0xxMMkkaac0ii	-1.3002
-3.4706	c0iik0xxMMxxNN	-1.3416
-3.5120	c0iik0yvP0t0oollooK0	-1.3009
-3.5120	c0iik0yvngiit0aa	-1.2566
-3.5120	c0iilluuhhaak0oo	-1.3009
-3.0349	c0iingk0vvMMt0aallii	-1.4767
-3.0349	c0iingk0vvMMt0aalliillxxLL	-1.3005
-3.2110	c0iinnaaSSt0aak0oo	-1.6017
-3.5120	c0iinnaac0ii	-1.3004
-3.2110	c0iinnaak0aannxxNN	-1.3002
-3.5120	c0iinniiNN	-1.3009
-3.5120	c0iip0uung	-1.3009
-3.5120	c0iiphyvSSt0aa	-1.2566
-3.5120	c0iis0iiK0	-1.3009
-4.5120	c0iis0iiK0iit0aa
-4.5120	c0iis0iiK0xxLL
-4.5120	c0iis0iiK0xxNN
-3.5120	c0iiwvc0iik0oo	-1.3009
-3.5578	c0iixxNN	-1.2539
-3.5120	c0ooHHaahheeSSk0oo	-1.3008
-3.5120	c0ooHHaahheeSSt0aa	-1.2566
-3.5120	c0ooHHk0eeSSt0aa	-1.2566
-3.5120	c0ooHHt0aannxxNN	-1.2993
-3.5120	c0ooHHt0aannxxNNt0ee	-1.3009
-3.5120	c0ooHHxxNN	-1.3009
-3.5120	c0ooHHxxnnii	-1.3008
-4.5120	c0ooLLllyvLLhhaaNN
-3.5120	c0ooLLmmyvNNs0vv	-1.3009
-2.9100	c0ooMM	-1.3004
-3.2110	c0ooMMchvvllvvMM	-1.3008
-3.5120	c0ooMMt0vv	-1.3008
-3.2110	c0ooNNc0eek0aa	-1.3006
-3.5120	c0ooNNc0eennxxNN	-1.3009
-3.5120	c0oohhaaP0	-1.3008
-3.5120	c0ook0eec0ii	-1.2566
-3.5120	c0ook0xxMMxxNN	-1.3009
-3.5120	c0oommuulleek0iit0xxLLeek0ee	-1.3009
-3.5120	c0oongllooee	-1.2992
-4.5120	c0oongllyuwa
-3.5120	c0oos0iiMMs0xxllvvP0k0ee	-1.3009
-3.5120	c0ooyaK0t0ooLLii	-1.3009
-3.5120	c0ooyaK0t0ooLLiivvSSt0aa	-1.2566
-3.0349	c0ooyaK0t0ooLLxxLL	-1.3005
-3.5120	c0ooyonghhaak0iimmaaNN	-1.2989
-4.5120	c0uuK0iiLL
-3.5120	c0uuK0k0iiee	-1.3009
-3.2110	c0uuK0k0iinnxxNN	-1.3001
-4.5120	c0uuK0vv
-3.5120	c0uuK0xxLL	-1.3009
-2.9100	c0uuLL	-1.2977
-3.5120	c0uuMMxxlloossvv	-1.3009
-3.5120	c0uuNNt0aa	-1.2566
-3.5120	c0uuNNt0aannxxNN	-1.3002
-3.2110	c0uuc0ii	-1.6018
-3.5120	c0uuiiNNee	-1.3006
-3.5120	c0uuk0iillxxLL	-1.3009
-3.2110	c0uuk0iit0oo	-1.2978
-3.5120	c0uuk0oo	-1.3008
-3.5120	c0uuk0oop0aaT0nnxxNN	-1.3008
-3.5120	c0uulloo	-1.3009
-4.5120	c0uummooK0c0vvK0xxlloo
-3.5120	c0uummuullxxnnxxNN	-1.3009
-3.5120	c0uummvvnnii	-1.3008
-3.5120	c0uummvvnniiee	-1.3009
-4.5120	c0uungeennxxNN
-3.5120	c0uungees0vv	-1.3008
-3.5120	c0uunghhaaK0s0eengxxlloo	-1.3008
-3.5120	c0uungs0iiMMxxlloo	-1.3009
-3.5120	c0uungs0iihhaannxxNN	-1.3009
-3.2110	c0uunnxxNN	-1.3006
-3.5120	c0uuvvSSt0aa	-1.2566
-3.5120	c0uuwillxxLL	-1.3009
-3.2110	c0vv	-1.3005
-3.2110	c0vvC0mmvvK0ii	-1.3008
-3.5120	c0vvC0mmvvK0iillxxLL	-1.3009
-4.5120	c0vvK0vvt0oo
-3.5120	c0vvLLMMxxNNiit0xxLLxi	-1.3009
-3.5120	c0vvLLt0eec0vvK0iiNN	-1.2993
-3.2110	c0vvMMc0vvMM	-1.3002
-3.5120	c0vvMMees0vv	-1.2992
-4.5120	c0vvMMees0vvnnxxNN
-3.5120	c0vvMMs0uunnaa	-1.3005
-3.5120	c0vvMMxxNN	-1.3002
-3.5120	c0vvNNc0eeng	-1.3009
-3.5120	c0vvNNchaallxxLL	-1.3009
-3.5120	c0vvNNcheec0vvK0iiNN	-1.3009
-3.5120	c0vvNNcheellxxLL	-1.3009
-2.9100	c0vvNNee	-1.2985
-3.5120	c0vvNNhhyv	-1.3009
-3.5120	c0vvNNiit0aa	-1.2566
-3.5120	c0vvNNk0eet0wevvSSt0aa	-1.2566
-3.5120	c0vvNNk0iit0oo	-1.3001
-4.5120	c0vvNNmmuuNNc0vvK0iiNN
-4.5120	c0vvNNp0uullxxLL
-3.5120	c0vvNNp0uuthvv	-1.3008
-3.5120	c0vvNNxi	-1.3009
-3.5120	c0vvP0hhaak0ee	-1.3004
-3.5120	c0vvc0vvLLlloo	-1.3004
-3.5120	c0vvccxxMM	-1.3009
-3.5120	c0vvllii	-1.3006
-3.5120	c0vvllvvt0aak0aannxxNN	-1.3009
-3.5120	c0vvmmaat0aa	-1.3000
-3.5120	c0vvmmuuLLt0oollooK0	-1.3009
-4.5120	c0vvngk0yohhaaNN
-3.5120	c0vvngk0yvLLhhaaNN	-1.3009
-4.5120	c0vvngs0iiNN
-3.5120	c0vvngs0iiNNxxLL	-1.3009
-3.5120	c0vvngt0oolloo	-1.3009
-3.5120	c0vvt0oo	-1.3006
-3.5578	c0wellxxLL	-1.2552
-3.5120	c0wvSSxxmmyvNN	-1.3009
-3.5120	c0xxK0	-1.3009
-3.5120	c0xxLLk0vvP0k0iimmaaNN	-1.2989
-3.5120	c0xxLLk0vvuuMMxxLL	-1.3009
-4.5120	c0xxngmmyvnghhaallyv
-3.5120	c0xxngoos0iiMMt0oo	-1.3009
-3.5120	c0xxngs0ooNNnnyvllaannxxNN	-1.3008
-3.5120	ccaaK0ii	-1.3001
-4.5120	ccaaLLP0xxNN
-3.5120	ccaalliiS0hhaak0ee	-1.3009
-3.5120	cciiLL	-1.3009
-3.5120	cciiP0cciiLLhhaaNN	-1.3009
-3.5120	cciik0oo	-1.3009
-3.5120	cciillxxNNt0aak0oo	-1.3006
-3.5120	ccooCHk0oo	-1.3000
-3.2110	ccooK0	-1.3008
-3.5120	ccooK0ii	-1.3009
-3.5120	ccooK0xxLL	-1.3009
-3.5120	ccwet0vvNN	-1.3005
-3.2110	ccyvSSnnxxNNc0ii	-1.3006
-2.9100	chaa	-1.6013
-3.2110	chaaC0aa	-1.3006
-3.5120	chaaC0aallaa	-1.2566
-3.0349	chaaMM	-1.3006
-3.5120	chaaMMwep0aaTHxxLL	-1.3009
-3.5120	chaaMMxxlloo	-1.3009
-3.5120	chaaMMyvhhaaNN	-1.3009
-3.5120	chaac0iihhaannxxNN	-1.3004
-4.5120	chaaiinnxxNN
-4.5120	chaak0aauuMMxxLL
-4.5120	chaak0aauuNN
-3.5120	chaalloo	-1.3008
-3.5120	chaallxxLL	-1.3009
-3.5120	chaangc0ooc0vvK0	-1.3009
-3.5120	chaangc0oohhaak0oo	-1.3009
-4.5120	chaawvNNii
-3.2110	chee	-1.3005
-3.5120	cheehhaaNNt0aa	-1.2566
-3.5120	cheehheeSSt0aa	-1.2566
-4.5120	cheehhvvMMmmaaNNxxlloossvv
-4.5120	cheehhvvMMxxLL
-4.5120	cheehhvvMMxxlloo
-4.5120	cheehhvvMMxxlloossvv
-3.5120	cheelloo	-1.3009
-3.5120	cheemmaaNNs0iiK0xxNN	-1.3009
-3.5120	cheennyvMMhhaaLL	-1.3009
-3.5120	cheeyvngs0iiNNii	-1.3004
-3.5120	cheeyvngs0iiNNiillaaNN	-1.3009
-3.5120	cheeyvngs0iiNNk0wa	-1.3006
-3.5120	chiiLLhhaaNN	-1.3009
-3.5120	chiiMMmmuuK0hhaaNN	-1.3009
-3.5120	chiiNNk0uueek0ee	-1.3009
-3.5120	chiic0aanghhee	-1.3006
-3.5120	chiiiik0oo	-1.3004
-4.5120	chiillvvya
-3.5120	chooc0oohhaaLL	-1.3009
-4.5120	choohhyvNNs0iiLLc0vvK0iiNN
-3.5120	chook0aac0iiP0	-1.3009
-3.5120	choongcheec0vvK0iiNN	-1.3000
-4.5120	choop0ooc0vvK0iiyo
-3.5120	choop0vvLL	-1.3009
-3.5120	choos0iinnee	-1.3009
-4.5120	chuuK0c0vvK0iiyo
-3.5120	chuuNNhhyangiinnaa	-1.3009
-3.0349	chuuhhaaNN	-1.2993
-4.5120	chuuk0uuhhaak0ee
-4.5120	chuuk0uuhhaak0ii
-3.5120	chuuk0uuhhaak0iit0oo	-1.3000
-4.5120	chuuk0uuhhaammyvNNs0vv
-4.5120	chuuk0uuhhaannxxNN
-4.5120	chuuk0uuhhaayv
-4.5120	chuungp0uuNNhhii
-3.5120	chuunnyvllxxLL	-1.3006
-3.5120	chvvNNchvvNNhhaaNN	-1.3009
-3.5120	chvvNNchvvNNhhii	-1.3009
-3.5120	chvvngchvvnghhaaNN	-1.3009
-3.5120	chvvngllyanghhaaNN	-1.3008
-3.5120	chvvngllyanglliiyvK0xxlloo	-1.3009
-3.5120	chvvngnnyvNNt0xxLLii	-1.3004
-3.5120	chvvngs0ooLLk0aac0iillxxLL	-1.3009
-3.5120	chvvxxMMeennxxNN	-1.3008
-3.5120	chweyongs0iiNNiillaannxxNN	-1.3009
-3.5120	chxxK0mmyvNNees0vv	-1.3009
-3.5120	eeK0cheek0aa	-1.3009
-3.5120	eeS0t0weNN	-1.3009
-3.5120	eessxxnnxxNN	-1.3009
-3.5120	eet0xxLLii	-1.3009
-3.5120	eet0xxLLxxNN	-1.3009
-4.5120	hhaaK0k0yo
-3.5120	hhaaK0k0yoees0vv	-1.3008
-3.5120	hhaaK0mmaaxxLL	-1.3006
-3.5120	hhaaK0s0eengii	-1.3009
-2.8131	hhaaLL	-1.3943
-3.5120	hhaaLLTHaa	-1.3008
-4.5120	hhaaLLc0iillaat0oo
-3.5120	hhaaLLmmvvnniinnxxNN	-1.2984
-2.8131	hhaaMMkkee	-1.2998
-4.5120	hhaaMMyangk0wa
-2.1898	hhaaNN	-1.3171
-3.5120	hhaaNNchaaMM	-1.3008
-3.5120	hhaaNNchaangiivvSSt0aa	-1.2566
-3.2110	hhaaNNk0aauuNNt0ee	-1.2998
-3.5120	hhaaNNk0aauuNNt0eeee	-1.3001
-3.5120	hhaaNNp0vvNN	-1.3009
-3.5120	hhaaNNphyvNNxxlloonnxxNN	-1.3005
-4.5120	hhaaNNphyvngs0eeng
-2.6089	hhaaNNt0aa	-2.1597
-3.5120	hhaaNNt0aaNN	-1.3008
-3.5120	hhaaNNt0aammyvNN	-1.2982
-3.5120	hhaaNNt0aat0vvk0uuNN	-1.2566
-3.5120	hhaaNNyonguuNNxxNN	-1.3009
-3.5120	hhaac0aa	-1.2566
-4.5120	hhaac0iimmaannxxNN
-4.5120	hhaak0eeSSc0iimmaaNN
-4.5120	hhaak0eeSSt0aa
-3.5120	hhaak0ii	-1.3006
-2.2110	hhaak0oo	-1.3178
-3.5120	hhaak0vvnnaa	-1.3009
-3.5120	hhaalluuhhaalluuk0aa	-1.3009
-2.6669	hhaammyvNN	-1.2974
-3.5120	hhaammyvNNs0vv	-1.3008
-3.2110	hhaannaa	-1.3002
-4.5120	hhaannaannxxNN
-3.5120	hhaannaaxi	-1.3009
-3.5120	hhaannxxLLlloo	-1.3009
-3.5120	hhaannxxLLxi	-1.3009
-2.6089	hhaannxxNN	-1.2981
-3.5120	hhaat0vvNN	-1.3006
-3.5120	hhaat0vvnnii	-1.3008
-3.5120	hhaayaNN	-1.3009
-4.5120	hhaayvSSt0aa
-2.9100	hhee	-1.2553
-3.5120	hheeS0s0aaLL	-1.3009
-3.5120	hheeS0s0aaLLii	-1.3004
-2.3079	hheeSSt0aa	-2.4607
-3.5120	hheeSSt0vvnnii	-1.3009
-3.5120	hheeSSt0vvnniip0aangmmaangii	-1.3008
-3.5120	hheeSSxxLL	-1.3009
-3.5120	hheeSSxxmmyv	-1.3009
-3.5120	hheeSSxxnnaa	-1.3008
-3.2110	hheek0aa	-1.3008
-3.5120	hheemmvvK0k0iik0aa	-1.3009
-3.5120	hheengk0uuLL	-1.3009
-4.5120	hheengs0aaiik0ii
-3.5120	hheengwiee	-1.3008
-3.5120	hheengwillxxLL	-1.3008
-3.5120	hheengwimmaaNNxxLL	-1.3009
-3.2110	hhees0vv	-1.2998
-3.5120	hhees0vvK0xxLL	-1.3009
-3.2110	hheet0oo	-1.3005
-4.5120	hheeya
-3.5120	hhiiMMii	-1.3009
-3.5120	hhiiMMxi	-1.3008
-3.5120	hhiiMMxxlloo	-1.3009
-3.5120	hhooK0xxNN	-1.3008
-3.5120	hhooNNthaaK0hhaaNN	-1.3001
-3.5120	hhoollaaK0hhoollaaK0	-1.3009
-3.5120	hhuuLLllyunghhaaNN	-1.3008
-4.5120	hhuuLLllyunghhaak0oo
-3.5120	hhuuMMchyv	-1.3009
-3.5120	hhuuNNhhuuNNhheec0iinniikkaa	-1.3009
-4.5120	hhuuchvvNNc0vvK0iiNN
-4.5120	hhuuchvvNNc0vvK0xxlloo
-3.2110	hhuuee	-1.3002
-3.5120	hhvvNNs0iiNNc0vvK0iivvSSt0aak0oo	-1.3009
-3.5120	hhvvNNs0iiNNhhaannxxNN	-1.3009
-3.5120	hhvvNNs0iiNNhhaat0aak0aa	-1.3009
-3.5120	hhvvS0t0iit0yvSSt0aa	-1.2566
-3.5120	hhvvc0vvNNhhaaMMii	-1.3009
-4.5120	hhvvhhwanghhaaNN
-3.5120	hhvvk0uuc0vvK0	-1.3009
-3.5120	hhvvlliillxxLL	-1.3009
-3.5120	hhvvlliittiichvvllvvMM	-1.3009
-4.5120	hhvvthaaNNhhaaNN
-3.5120	hhvvthaangiit0aa	-1.2566
-3.5120	hhwaK0	-1.3009
-3.5120	hhwaLLt0oongee	-1.3009
-4.5120	hhwaLLt0oongxxNN
-3.5120	hhwaLLt0oongxxlloos0vv	-1.3009
-4.5120	hhwaLLyonghhaannxxNN
-3.5120	hhwaNNhheec0iik0oo	-1.3009
-4.5120	hhwaNNs0aangxxLL
-3.5120	hhwac0aangphuuMMxxLL	-1.3009
-3.5120	hhwak0aa	-1.3009
-3.5120	hhwallxxLL	-1.3009
-3.5120	hhwawvNNiillaak0oo	-1.3004
-3.5120	hhweK0	-1.3008
-4.5120	hhweK0t0xxK0hhaannxxNN
-4.5120	hhweK0t0xxK0xxLL
-3.5120	hhwit0uuLLllvv	-1.3005
-3.5120	hhwivvc0aaP0aa	-1.3009
-3.5120	hhxiNN	-1.3009
-3.5120	hhxis0eengt0weNN	-1.3009
-3.2110	hhxivvSSt0aa	-1.5577
-3.5120	hhxxLLK0p0aallaaMMii	-1.3009
-3.5120	hhxxLLllvvt0xxLLvvSSt0aa	-1.2566
-3.5120	hhxxMMppvvK0	-1.3009
-3.5120	hhxxNNhhii	-1.3009
-3.5120	hhxxNNt0xxLLvv	-1.3005
-3.5120	hhxxP0s0uuc0iik0aa	-1.3008
-3.5120	hhxxTHvvc0yvs0vv	-1.3009
-3.5120	hhxxllxxnnxxNN	-1.2998
-3.5120	hhxxngc0vvngiiyo	-1.3009
-3.5120	hhxxngc0vvngxxNN	-1.3009
-3.5120	hhyanghhee	-1.3009
-3.5120	hhyangk0iik0aa	-1.3009
-3.5120	hhyangk0iillooP0k0oo	-1.3004
-3.5120	hhyangk0iilloowvc0iiLL	-1.2992
-3.5120	hhyvNNk0iic0xxngii	-1.3009
-4.5120	hhyvNNs0iiLL
-3.5120	hhyvNNs0iiLLee	-1.2996
-3.0349	hhyvNNs0iiLLii	-1.3006
-3.5120	hhyvNNs0iiLLiillaak0oo	-1.3000
-3.2110	hhyvNNs0iiLLiit0aa	-1.5577
-3.2110	hhyvNNs0iiLLk0wa	-1.3002
-3.2110	hhyvNNs0iiLLk0waxi	-1.3008
-4.5120	hhyvNNs0iiLLlloonnxxNN
-4.5120	hhyvNNs0iiLLmmaaNNxxLL
-3.2110	hhyvNNs0iiLLxi	-1.2981
-2.6669	hhyvNNs0iiLLxxLL	-1.3654
-3.2110	hhyvNNs0iiLLxxNN	-1.2997
-3.5120	hhyvNNt0eeiiNNt0xxLLxxNN	-1.3009
-3.5120	hhyvS0p0aat0aaK0xxlloo	-1.3008
-3.5120	hhyvngs0vvngee	-1.3006
-3.5120	hhyvngs0vvnghhaaLL	-1.2993
-3.5120	hhyvngs0vvnghhaaNNt0aa	-1.2566
-3.5120	hhyvngtheelloo	-1.3009
-2.2568	ii	-1.2967
-3.5120	iiK0k0oo	-1.3009
-3.5120	iiK0nnxxNN	-1.3004
-3.5120	iiLL	-1.3009
-3.5120	iiLLK0k0oo	-1.3009
-3.5120	iiLLK0nnxxNN	-1.3009
-3.5120	iiLLK0vv	-1.3005
-3.2110	iiLLc0ee	-1.6018
-3.5120	iiLLc0vvNNee	-1.3009
-3.2110	iiLLii	-1.2988
-4.5120	iiLLiillaa
-4.5120	iiLLiit0aa
-3.5120	iiLLiivvSSt0aa	-1.2566
-4.5120	iiLLmmyvNNxxNN
-3.0349	iiLLs0aang	-1.4767
-3.5120	iiLLs0aangc0vvK0	-1.3008
-3.0349	iiLLs0aangc0vvK0iiNN	-1.2992
-4.5120	iiLLs0eeng
-3.5120	iiLLs0iic0vvK0iiNN	-1.3009
-3.2110	iiLLt0aaNN	-1.3008
-3.5120	iiLLt0oo	-1.3001
-3.5120	iiLLt0xxLLii	-1.3009
-3.5120	iiLLt0xxLLp0oot0aannxxNN	-1.3009
-3.5120	iiLLvvnnaa	-1.3009
-3.5120	iiLLvvnnaak0oo	-1.3008
-3.5120	iiLLvvs0vvSSt0aa	-1.2566
-2.8131	iiLLxxLL	-1.2992
-3.5120	iiMMii	-1.3009
-3.5120	iiNNc0ee	-1.2998
-3.5120	iiNNc0eennxxNN	-1.3009
-3.5120	iiNNhhees0vv	-1.3009
-4.5120	iiNNk0aaNNmmaaNNii
-3.5120	iiNNk0aaNNxxLL	-1.3008
-4.5120	iiNNk0aaNNxxNN
-3.5120	iiNNk0yvK0	-1.3009
-4.5120	iiNNllyuk0aa
-3.5120	iiNNmmuuLLt0xxLLxxLL	-1.3009
-3.5120	iiNNmmuuLLxxLL	-1.3009
-3.5120	iiNNmmuuLLxxNN	-1.3009
-3.2110	iiNNphuuMMxxLL	-1.3008
-4.5120	iiNNs0eengees0vv
-3.2110	iiNNs0eengxi	-1.3008
-4.5120	iiNNs0eengxxNN
-3.5120	iiNNt0uulloo	-1.3004
-3.5120	iiP0ees0vv	-1.3008
-3.5120	iiP0s0uuLLee	-1.3009
-3.5120	iiP0vvya	-1.2984
-3.5120	iiP0xxNN	-1.3009
-3.2110	iiSSc0ii	-1.3008
-3.5120	iiSSk0eeSSvv	-1.2566
-3.5120	iiSSk0oo	-1.3009
-3.5120	iiSSnnii	-1.2566
-3.5120	iiSSnnoollaammyvNN	-1.3009
-2.3659	iiSSnnxxNN	-1.3599
-3.5120	iiSSnnxxNNc0iit0oo	-1.3008
-3.2110	iiSSnnxxNNk0aa	-1.6011
-2.3359	iiSSt0aa	-2.4327
-3.5120	iiSSt0aak0aa	-1.3005
-3.5120	iiSSt0aak0oo	-1.2989
-4.5120	iiSSt0aannxxNN
-3.5120	iiSSt0oollooK0	-1.3004
-3.5120	iiSSt0vvNN	-1.3009
-2.8131	iiSSvv	-1.4767
-3.5120	iiSSvvSSk0oo	-1.3009
-3.5120	iiSSvvSSk0uunnaa	-1.2566
-3.2110	iiSSvvSSnnxxNNt0ee	-1.2982
-2.3079	iiSSvvSSt0aa	-2.4607
-3.0349	iiSSvvSSt0vvNN	-1.2988
-3.5120	iiSSvvya	-1.3006
-3.5120	iiSSxxLL	-1.2992
-3.5120	iiSSxxLLkkaa	-1.2566
-3.5120	iiSSxxLLkkaammaannxxNN	-1.3009
-3.5120	iiSSxxMMxxlloo	-1.3008
-4.5120	iiSSxxmmyvNNs0vvt0oo
-4.5120	iiSSxxnnii
-3.5120	iic0ee	-1.3009
-3.5120	iic0eennxxNN	-1.3009
-3.5120	iichiillxxLL	-1.3009
-3.5120	iichvvllvvMM	-1.3001
-3.5120	iik0ee	-1.3005
-4.5120	iik0vvS0ii
-3.5120	iik0vvS0xxLL	-1.3009
-3.5120	iik0vvS0xxNN	-1.3009
-3.5120	iik0wangs0uunnxxNN	-1.3006
-3.5120	iillees0vv	-1.2997
-3.5120	iillii	-1.3006
-3.5120	iilliic0vvllii	-1.3006
-3.2110	iilliilloo	-1.3008
-3.5120	iilluuk0ee	-1.3005
-3.5120	iilluunnxxNN	-1.3009
-4.5120	iilluuvvc0iic0ii
-3.5120	iillvvHHk0ee	-1.3005
-3.5120	iillvvLL	-1.3001
-2.9100	iillvvNN	-1.3005
-2.9100	iillvvhhaaNN	-1.3001
-3.5120	iillxxMMt0oo	-1.3006
-3.5120	iillxxNN	-1.3009
-3.5120	iillxxk0iikkaac0ii	-1.3006
-3.5120	iillxxnnii	-1.3008
-3.5120	iimmii	-1.3009
-3.5120	iingtheet0weNN	-1.3002
-3.2110	iinnee	-1.3005
-3.5120	iinnxxNN	-1.3009
-3.5120	iip0vvMMs0vvNNxi	-1.3009
-3.2110	iip0vvNNeennxxNN	-1.3002
-3.5120	iis0aang	-1.3009
-4.5120	iis0aangee
-3.5120	iis0aanghhaaNN	-1.3009
-3.5120	iis0aanghhwannxxNN	-1.3009
-3.5120	iis0aangii	-1.3000
-4.5120	iis0aangiillaannxxNN
-4.5120	iis0aangiiyo
-4.5120	iis0aangk0wa
-4.5120	iis0aangxi
-2.9100	iis0aangxxLL	-1.3004
-4.5120	iis0aangxxNN
-3.5120	iit0xxLLxi	-1.3004
-3.5120	iiuuS0	-1.3009
-3.5120	iiuuS0ii	-1.3009
-3.5120	iiuuS0xxlloo	-1.3004
-3.5120	iivv	-1.3008
-3.5120	iivvc0yvya	-1.3005
-3.5120	iiwa	-1.3004
-3.5120	iixi	-1.3008
-3.5120	iiyak0iihheeSSt0aammyvNN	-1.3006
-3.5120	iiyak0iik0aa	-1.3004
-3.2110	iiyak0iillxxLL	-1.3008
-3.5120	iiyonghhaaNNt0aa	-1.2566
-3.5120	iiyonghheeSSt0aa	-1.2566
-3.5120	iiyunnxxNN	-1.3009
-3.0349	k0aa	-1.4767
-3.5120	k0aaC0xxNN	-1.3009
-3.2110	k0aaLL	-1.6015
-3.0349	k0aaLLkkooCHii	-1.2979
-3.5120	k0aaLLkkooCHmmvvlliiees0vv	-1.3009
-3.5120	k0aaLLkkooCHppuuNN	-1.2566
-3.5120	k0aaLLkkooCHxxLL	-1.3008
-3.2110	k0aaLLllaa	-1.3008
-3.5120	k0aaLLlliiMMk0iiLLee	-1.3006
-3.5120	k0aaLLp0aaTH	-1.3009
-3.5120	k0aaLLp0aaTHmmvvlliiees0vv	-1.3006
-3.5120	k0aaLLp0aaTHmmvvlliilloo	-1.2996
-3.5120	k0aaLLp0aaTHt0oo	-1.2998
-3.2110	k0aaMMchuunnxxNN	-1.3001
-3.5120	k0aaMMii	-1.3009
-3.5120	k0aaMMk0oo	-1.3006
-3.5120	k0aaMMnnxxNN	-1.3005
-3.5120	k0aaMMt0aak0aat0oo	-1.3009
-3.5120	k0aaMMt0oongk0wa	-1.3009
-3.5120	k0aaMMt0oongxxLL	-1.3009
-3.5120	k0aaNNt0aaNNhhaat0aa	-1.2566
-3.5120	k0aaP0S0c0iiNN	-1.3009
-3.5120	k0aaP0S0p0iissaaNN	-1.3009
-3.0349	k0aaP0S0xxLL	-1.2993
-3.5120	k0aaP0S0xxlloo	-1.3009
-3.5120	k0aaP0c0aak0ii	-1.3008
-3.5120	k0aaP0k0aaP0hhaak0oo	-1.3009
-3.5120	k0aaS0nnaaNN	-1.3009
-3.5120	k0aaSSt0aak0aa	-1.3009
-2.8131	k0aaTHaaSSt0aa	-1.9556
-3.5120	k0aaTHc0iik0aa	-1.3005
-3.5120	k0aaTHc0iinnxxNN	-1.3005
-4.5120	k0aaTHii
-3.5120	k0aaTHk0oo	-1.3008
-3.5120	k0aaTHt0vvnnii	-1.3009
-2.8218	k0aaTHxxNN	-1.3878
-3.2110	k0aac0aang	-1.3001
-3.5120	k0aac0ii	-1.3009
-4.5120	k0aac0iiNN
-2.9100	k0aac0iik0oo	-1.3002
-3.5120	k0aac0iik0oot0oo	-1.3009
-4.5120	k0aac0iinnxxNN
-4.5120	k0aac0vvng
-3.5120	k0aac0vvngxxLL	-1.3009
-4.5120	k0aac0yvSSt0aannxxNN
-4.5120	k0aachiillxxLL
-3.2110	k0aaee	-1.2998
-3.5120	k0aak0ii	-1.3002
-4.5120	k0aak0oongxi
-3.5120	k0aakkaauuNN	-1.3006
-3.5120	k0aakkuuNN	-1.3009
-3.5120	k0aakkuunnxxNN	-1.3008
-3.5120	k0aakkuuvv	-1.3008
-3.5120	k0aalliiLL	-1.3009
-4.5120	k0aalliikhiinnxxNN
-3.5120	k0aalliikhyvSSt0aa	-1.2566
-3.5120	k0aallyvk0oo	-1.3006
-4.5120	k0aallyvng
-3.2110	k0aangc0vvMMk0iixi	-1.3000
-3.5120	k0aangees0vv	-1.3009
-3.5120	k0aangk0iis0xxLLK0xxlloo	-1.3009
-3.2110	k0aannxxNN	-1.3006
-3.5120	k0aannxxNNk0wik0aa	-1.3005
-4.5120	k0aannxxnghhaak0oo
-3.5120	k0aannxxnghhaammyvNN	-1.2992
-4.5120	k0aannxxngs0vvngiillaaNN
-4.5120	k0aannxxngs0vvngmmaaNNxxNN
-3.5120	k0aas0ii	-1.3009
-3.5120	k0aas0iinneet0xxLLxxNN	-1.3008
-3.5120	k0aas0vv	-1.3008
-3.5120	k0aas0xxMM	-1.2982
-3.5120	k0aat0xxS0ii	-1.3009
-3.2110	k0aaxxLL	-1.3008
-3.5120	k0aaxxLLiimmyvNN	-1.3009
-3.2110	k0aaya	-1.2989
-2.9100	k0ee	-1.4245
-3.5120	k0eechvvK0hhaannxxNN	-1.3006
-3.5120	k0eehhyvK0hhee	-1.3008
-3.5120	k0eeiiNNc0vvK0iiNN	-1.3009
-4.5120	k0eeiiNNii
-3.5120	k0eennaa	-1.3009
-3.5120	k0eeuuLL	-1.3009
-3.5120	k0eeuuLLeet0aa	-1.3009
-3.5120	k0eeuuLLk0aaee	-1.3009
-3.5120	k0eeuuLLk0aaees0vv	-1.3009
-3.2110	k0eeuuLLk0aalloo	-1.6018
-3.5120	k0eeuuLLmmuuLLxxLL	-1.3008
-3.2110	k0eeuuLLt0uuK0ee	-1.6011
-3.5120	k0eeuuLLt0uuK0iinnaa	-1.3009
-3.5120	k0eeuuLLxxLL	-1.3009
-3.5120	k0iiLL	-1.3008
-3.2110	k0iiLLee	-1.3008
-3.5120	k0iiLLeennxxNN	-1.3009
-3.0349	k0iiLLxxLL	-1.3005
-4.5120	k0iiNNc0vvLLhhaaNN
-3.5120	k0iiNNmmiiLLhhaak0ee	-1.3008
-3.5120	k0iiPHs0uuK0hhii	-1.3009
-3.5120	k0iichaat0oo	-1.3009
-3.5120	k0iik0aa	-1.3008
-4.5120	k0iik0aaNN
-3.5120	k0iillooK0hhaannxxNN	-1.3002
-3.5120	k0iillooK0k0wa	-1.3009
-3.5120	k0iip0vvP0iiNN	-1.3008
-3.5120	k0iip0vvP0k0wa	-1.3009
-3.5120	k0iippxxMM	-1.3008
-3.5120	k0iippxxMMiillaammyvNN	-1.3004
-3.2110	k0iippxxMMk0wa	-1.3008
-3.5120	k0iippxxMMxxLL	-1.3009
-3.5120	k0iis0xxLLK0ees0vv	-1.3009
-3.5120	k0iit0aalliic0aannxxNN	-1.2993
-3.5120	k0iit0aalliik0oo	-1.3009
-3.5120	k0iiuuLLiiNN	-1.3005
-3.5120	k0iiuuLLmmyvNN	-1.2997
-3.2110	k0iiuuLLyv	-1.3004
-3.5120	k0iivv	-1.3009
-3.5120	k0iivvk0aat0xxS0	-1.3009
-3.5120	k0ooK0s0iiK0p0aaTHiinnaa	-1.3006
-3.5120	k0ooMMp0aangt0eeee	-1.3009
-3.5120	k0ooP0k0ee	-1.3009
-3.5120	k0ooP0t0aa	-1.2566
-3.5120	k0ooS0ee	-1.3008
-2.8131	k0ooT0	-1.3943
-3.5120	k0ooc0aang	-1.3009
-3.5120	k0ooc0aangxi	-1.3009
-3.5120	k0ooc0vvNN	-1.3008
-3.5120	k0oohhaaMMxxLL	-1.3009
-3.5120	k0ook0ii	-1.3009
-4.5120	k0oongc0aangt0oo
-4.5120	k0oongs0aangii
-3.5120	k0oongye	-1.3009
-3.5120	k0ooppiillxxLL	-1.3009
-3.5120	k0oouuNN	-1.3009
-3.5120	k0ooyangii	-1.3009
-3.0349	k0uuLL	-1.3004
-3.5120	k0uuMMs0iiLLk0uuMMs0iiLL	-1.3009
-3.5120	k0uuMMttxxk0ii	-1.3009
-3.5120	k0uuNNchiiMMt0oo	-1.3009
-3.5120	k0uuNNt0eek0uuNNt0ee	-1.3009
-3.5120	k0uuc0oo	-1.3009
-3.2110	k0uuc0xxng	-1.3008
-3.5120	k0uuk0yvngkkuuNNii	-1.3009
-3.5120	k0uullxxngxxlloos0vv	-1.2986
-3.5120	k0uullyv	-1.3005
-3.5120	k0uup0uuNNii	-1.3004
-3.5120	k0uup0yvLLhheeSSk0oo	-1.3008
-3.5120	k0uuphoohhaaNN	-1.2997
-3.5120	k0uuphoollaaNN	-1.3009
-3.5120	k0uus0vvK0ee	-1.3006
-3.5120	k0uus0vvK0eennxxNN	-1.3009
-3.2110	k0vvLL	-1.3006
-3.5120	k0vvLLvvk0aannxxNN	-1.3008
-3.5120	k0vvLLxxMMiivvSSt0aa	-1.2566
-3.5120	k0vvMMk0ee	-1.3009
-3.5120	k0vvMMxxNN	-1.3009
-3.5120	k0vvNNnnvvNNt0aa	-1.2566
-3.5120	k0vvNNnnvvk0aaNNt0aa	-1.2566
-3.5120	k0vvNNnnvvk0aat0vvnniimmaaNN	-1.3009
-3.5120	k0vvNNnnvvk0ii	-1.3006
-3.5120	k0vvNNnnvvnnxxNN	-1.3005
-3.5120	k0vvNNnnvvook0oo	-1.3008
-3.5120	k0vvNNnnvvphyvNN	-1.3008
-3.5120	k0vvNNnnvvt0vvNN	-1.3006
-4.5120	k0vvNNs0vvLLhhaak0ee
-2.5164	k0vvS0	-1.5167
-3.5120	k0vvS0ee	-1.3009
-3.5120	k0vvS0ees0vv	-1.3009
-3.0349	k0vvS0ii	-1.2997
-3.5120	k0vvS0iiLLkkaa	-1.2566
-3.5120	k0vvS0iiNNk0aallxxLL	-1.3008
-3.5120	k0vvS0iic0ii	-1.2566
-4.5120	k0vvS0iic0iimmaaNN
-3.5120	k0vvS0iik0oo	-1.3009
-4.5120	k0vvS0iillaa
-4.5120	k0vvS0iillaaNN
-3.5120	k0vvS0iillaak0oo	-1.3000
-3.2110	k0vvS0iillee	-1.5577
-3.5120	k0vvS0iilliillaa	-1.2566
-3.5120	k0vvS0iinnaa	-1.3009
-2.3981	k0vvS0iit0aa	-2.3706
-3.2110	k0vvS0iivvSSt0aa	-1.5577
-4.5120	k0vvS0iiyo
-3.2110	k0vvS0mmaaNN	-1.6014
-4.5120	k0vvS0mmaaNNxxlloonnxxNN
-3.5120	k0vvS0p0oot0aa	-1.3006
-4.5120	k0vvS0t0oo
-2.9100	k0vvS0xxLL	-1.4240
-2.5120	k0vvS0xxNN	-1.2947
-3.5120	k0vvS0xxlloo	-1.2994
-3.5120	k0vvT0c0aaP0xxLL	-1.3008
-3.5120	k0vvT0hhyv	-1.2989
-3.5120	k0vvT0vv	-1.3009
-3.5120	k0vvT0vvooLLlliiNN	-1.3009
-3.5120	k0vvTHchiilleeeemmaaNN	-1.3009
-3.5120	k0vvTHchiilleeiiLL	-1.2992
-3.5120	k0vvTHxxLL	-1.3009
-3.2110	k0vvc0ii	-1.5577
-3.5120	k0vvc0uuK0xi	-1.3009
-3.2110	k0vvchiiLLk0oo	-1.3008
-3.5120	k0vvchiiLLvvSSk0ii	-1.3009
-3.5120	k0vvchiiLLvvc0iik0oo	-1.3009
-3.5120	k0vvchiiMMvvP0S0ii	-1.3009
-3.5120	k0vvchiiNN	-1.3009
-3.5120	k0vvchiiNNc0ii	-1.2997
-3.5120	k0vvk0iiees0vv	-1.3005
-3.5120	k0vvk0oo	-1.3006
-3.5120	k0vvllxxMMxxlloo	-1.3009
-2.8131	k0vvt0aa	-1.9556
-3.5120	k0vvt0wvt0xxLLiik0oo	-1.3009
-4.5120	k0vvt0xxP0hhaaLLc0iillaat0oo
-4.5120	k0vvxi
-2.7339	k0vvya	-2.0348
-3.5120	k0waNNk0yellxxLL	-1.2996
-3.5120	k0waNNllyvNNhhaayv	-1.3009
-3.5120	k0walloolloo	-1.3009
-3.5578	k0welloouuMMxxLL	-1.2550
-3.5120	k0wengc0aanghhii	-1.3009
-3.5120	k0willxxLL	-1.3008
-3.5120	k0wiyvP0c0ii	-1.3008
-3.5120	k0wiyvuuNN	-1.3009
-3.5120	k0wiyvwvSSt0aa	-1.2566
-4.5120	k0wvNNweee
-2.2132	k0xx	-1.3403
-3.5120	k0xxK0ees0vvt0oo	-1.3009
-3.5120	k0xxLLssee	-1.3009
-3.2110	k0xxLLxxLL	-1.3008
-4.5120	k0xxNNmmyvNN
-4.5120	k0xxNNmmyvNNiit0aa
-3.5120	k0xxNNt0ee	-1.3009
-3.5120	k0xxNNwvNNii	-1.3009
-3.5120	k0xxP0k0xxP0hhaaNN	-1.3009
-3.5120	k0xxc0vv	-1.3009
-3.5120	k0xxchiic0ii	-1.3004
-2.8131	k0xxk0vvNN	-1.3969
-3.5120	k0xxk0vvS0eemmaaNN	-1.3009
-3.5120	k0xxk0vvS0ii	-1.3004
-4.5120	k0xxk0vvS0iillaak0oo
-3.5120	k0xxk0vvS0xxLL	-1.3008
-3.0349	k0xxk0vvS0xxNN	-1.3004
-3.5120	k0xxllees0vv	-1.3006
-3.5120	k0xxlleet0oo	-1.2993
-3.5120	k0xxllii	-1.3009
-3.2110	k0xxlliiMMc0aak0aa	-1.6018
-3.5120	k0xxlliiMMxxlloossvv	-1.3006
-3.5120	k0xxlliiNN	-1.3002
-3.5120	k0xxlliiNNt0aammyvNN	-1.3006
-4.5120	k0xxlliihhaallyvmmyvNN
-4.5120	k0xxlliihhaayv
-3.5120	k0xxlliik0ee	-1.3004
-3.5120	k0xxlliik0iit0oo	-1.3000
-2.4328	k0xxlliik0oo	-1.2959
-3.5120	k0xxlliik0ooc0aa	-1.3009
-3.5120	k0xxlliik0oonnxxNN	-1.3008
-3.5120	k0xxlliillyvk0oo	-1.3009
-4.5120	k0xxlliimmyv
-4.5120	k0xxllvvHHc0iik0aa
-2.9100	k0xxllvvHHk0ee	-1.3004
-3.0349	k0xxllvvHHk0ii	-1.7771
-3.5120	k0xxllvvHHt0aa	-1.2566
-3.0349	k0xxllvvLL	-1.3000
-3.5120	k0xxllvvLLkkaa	-1.2566
-3.5120	k0xxllvvMM	-1.3009
-2.7267	k0xxllvvNN	-1.3863
-3.5120	k0xxllvvNNk0aa	-1.3001
-2.6669	k0xxllvvNNt0ee	-1.2962
-3.2110	k0xxllvvNNt0eet0oo	-1.3002
-3.2110	k0xxllvvhhaaNN	-1.3002
-3.5120	k0xxllvvhhaak0ii	-1.3000
-3.5120	k0xxllvvk0oot0oo	-1.3009
-4.5120	k0xxllvvmmxxlloo
-4.5120	k0xxllvvmmyvNN
-2.5120	k0xxllvvnnaa	-1.2955
-3.2110	k0xxllvvnniikkaa	-1.3002
-3.5120	k0xxllvvnnxxNN	-1.3006
-3.0349	k0xxllvvt0aak0aa	-1.2993
-3.5120	k0xxllxxLL	-1.3009
-3.5120	k0xxllyv	-1.3009
-3.2110	k0xxmmaaNN	-1.3005
-3.5120	k0xxmmaaNNhhaammyvNN	-1.2998
-3.5120	k0xxmmaaNNiiNN	-1.3002
-3.5120	k0xxnnxxLLees0vvnnxxNN	-1.3009
-3.5120	k0xxnnxxLLii	-1.3009
-3.5120	k0xxnnxxNN	-1.3009
-2.9100	k0xxnnyang	-1.3000
-3.5120	k0xxp0oot0aa	-1.3009
-3.5120	k0xxt0aac0ii	-1.3009
-2.5120	k0xxt0eelloo	-1.3453
-3.5120	k0xxt0eellooxi	-1.3008
-3.5120	k0xxt0xxLLii	-1.3009
-3.0349	k0xxt0xxLLxxNN	-1.3000
-3.5120	k0yemmoong	-1.3006
-3.5120	k0yemmoongxxLL	-1.3002
-4.5120	k0yep0aaLLhhaaLL
-3.5120	k0yes0ooK0t0weLLs0uullooK0	-1.3009
-4.5120	k0yoyuK0ee
-4.5120	k0yoyuK0k0wa
-4.5120	k0yoyuK0xxLL
-3.5120	k0yvKKnnxxNN	-1.3009
-3.2110	k0yvLLkhoo	-1.3008
-3.5120	k0yvLLmmaaLLxxLL	-1.3009
-3.5120	k0yvTHeennxxNN	-1.3005
-3.5120	k0yvngc0eec0vvK0iiNN	-1.3009
-3.5120	k0yvnghhyangii	-1.3009
-3.5120	k0yvnghhyangk0wa	-1.3005
-3.5120	k0yvnghhyangxxLL	-1.3009
-3.5120	k0yvnghhyangxxNN	-1.3009
-3.5120	k0yvnguueennxxNN	-1.3009
-3.5120	k0yvuunnee	-1.3009
-4.5120	khooLLlleellaak0yuNNxxNN
-3.5120	khoollxxLL	-1.3009
-3.2110	khoongp0aaTHk0wa	-1.3008
-3.5120	khoophiillxxLL	-1.3009
-3.5120	khoophiiyvSSt0aa	-1.2566
-3.5120	khvvt0aallaaNN	-1.3009
-2.7339	khxxNN	-1.2990
-3.5120	khxxNNk0iiLL	-1.3009
-3.5120	kkaa	-1.3009
-3.0349	kkaaKKaa	-1.3004
-3.5120	kkaaKKaaSSt0aak0oo	-1.3008
-3.5120	kkaaKKaannaa	-1.3009
-3.5120	kkaaKKc0ii	-1.3009
-3.5120	kkaaKKc0iit0oo	-1.3009
-3.5120	kkaaKKk0ii	-1.3009
-3.2110	kkaaKKk0oo	-1.2969
-3.5120	kkaaKKnnxxNN	-1.2997
-3.5120	kkaaKKnnxxNNt0aaNN	-1.3009
-3.5120	kkaaKKt0aak0aa	-1.3009
-3.5120	kkaaKKt0vvNN	-1.3005
-3.5120	kkaaKKxxllyvoo	-1.3009
-3.5120	kkaaKKyv	-1.3009
-3.2110	kkaaLLk0oo	-1.3008
-3.5120	kkaaLLkkaaLLk0vvlliimmyv	-1.3009
-3.5120	kkaaMMccaaK0	-1.3009
-3.5120	kkaat0aaLLK0	-1.3006
-3.5120	kkaat0aaLLK0xxNN	-1.3009
-3.5120	kkeet0aaLLxxMMii	-1.3004
-3.5120	kkooCHees0vv	-1.3009
-3.5120	kkooCHii	-1.3009
-3.5120	kkooCHk0aac0iillxxLL	-1.3009
-3.5120	kkooCHk0wa	-1.3009
-3.5120	kkooCHxxNN	-1.3009
-3.5120	kkooK0	-1.3009
-3.5120	kkooLLees0vv	-1.3009
-3.5120	kkooLLxxLL	-1.3009
-4.5120	kkuuMMii
-4.5120	kkuuMMiillaaNN
-4.5120	kkuuMMk0wa
-4.5120	kkuuMMxxLL
-4.5120	kkuuMMxxNN
-3.5120	kkvvKKvvt0aak0aa	-1.3005
-3.5120	kkvvmmvvHHk0ee	-1.3004
-3.0349	kkwe	-1.2998
-3.5120	kkwvng	-1.3008
-3.5120	kkxxLLHHvvya	-1.3008
-3.5120	kkxxLLHHxxLL	-1.3009
-3.5120	kkxxNNHHiiMMvvP0S0ii	-1.3009
-3.5120	kkxxTHnnaammyvNN	-1.3008
-3.5120	kkxxTHxxLL	-1.3009
-3.5120	llaat0iioot0oo	-1.3009
-3.5120	llii	-1.3009
-3.5120	lliit0oo	-1.3008
-3.5120	lliit0xxMM	-1.3009
-3.5120	lliit0xxMMxxLL	-1.3009
-3.5120	mmaaC0xxNNccooK0	-1.3009
-3.5120	mmaaK0	-1.3009
-3.2110	mmaaK0hhyvs0vv	-1.3006
-4.5120	mmaaLL
-3.5120	mmaaLLK0aac0iik0oo	-1.3009
-2.9100	mmaaLLK0k0oo	-1.3002
-3.2110	mmaaLLK0xxNN	-1.3006
-3.2110	mmaaLLaaSSt0aa	-1.5577
-3.4706	mmaaLLc0oochaa	-1.3412
-3.5120	mmaaLLii	-1.3009
-3.5120	mmaaLLiiNNt0ee	-1.3009
-3.5120	mmaaLLiioo	-1.3009
-3.2110	mmaaLLiit0aa	-1.5577
-3.5120	mmaaLLiiya	-1.2566
-4.5120	mmaaLLk0ee
-3.5120	mmaaLLk0oo	-1.2566
-3.5120	mmaaLLlliik0iillxxLL	-1.3008
-3.2110	mmaaLLmmaaNN	-1.3006
-3.5120	mmaaLLssiiee	-1.3009
-3.5120	mmaaLLssiinnxxNN	-1.3004
-3.5120	mmaaLLssiit0xxLLii	-1.3009
-3.5120	mmaaLLt0oo	-1.3000
-3.2110	mmaaLLthaak0iit0oo	-1.2988
-3.5120	mmaaLLthuut0aa	-1.2566
-3.5120	mmaaLLxi	-1.3009
-3.5120	mmaaLLxxLL	-1.3008
-3.2110	mmaaLLxxNN	-1.3004
-4.5120	mmaaNNHHt0aa
-3.5120	mmaaNNHHxxNN	-1.3009
-4.5120	mmaaNNc0ooK0hhaac0iillxxLL
-4.5120	mmaaNNc0yv
-3.5120	mmaaNNhhaaNN	-1.3008
-4.5120	mmaaNNiiLL
-3.5120	mmaaNNkhxxMM	-1.3009
-3.5120	mmaaNNmmaaNNhhaaNN	-1.3009
-3.5120	mmaaNNnnaak0ii	-1.3002
-3.5120	mmaaNNnnaak0iik0aa	-1.3009
-3.2110	mmaaNNt0xxLLvv	-1.3005
-3.5120	mmaaNNt0xxLLvvSSxxLL	-1.2993
-3.5120	mmaaNNt0xxLLvvyac0ii	-1.3009
-3.5120	mmaaNNt0xxNNt0aannxxNN	-1.3009
-3.5120	mmaaNNt0xxnnxxNN	-1.2984
-3.5120	mmaac0aangccxxMM	-1.2993
-3.5120	mmaac0uuchyvSSt0aa	-1.2566
-4.5120	mmaachaaNNk0aac0iilloo
-3.5120	mmaachaaNNk0aac0iit0aa	-1.2566
-3.5120	mmaachii	-1.3009
-3.5120	mmaak0uu	-1.3009
-3.5120	mmaallii	-1.3009
-3.5120	mmaallxxNN	-1.3009
-3.5120	mmaallyvNN	-1.3009
-3.5120	mmaallyvNNhhaaMMxxlloossvv	-1.3001
-3.5120	mmaangk0aaK0hhaak0oo	-1.3004
-4.5120	mmaangs0aangii
-3.5120	mmaanniikkaa	-1.2566
-4.5120	mmaannxxNN
-3.0349	mmaannyang	-1.3005
-2.9100	mmaaxxLL	-1.4244
-3.5120	mmaaxxLLee	-1.3009
-3.5120	mmaaxxLLiivvSSt0aa	-1.2566
-3.5120	mmaaxxLLlloo	-1.3009
-3.5120	mmaaxxLLt0oo	-1.3008
-3.5120	mmaaxxMMee	-1.3009
-3.5120	mmaaxxMMees0vv	-1.3008
-3.5120	mmaaxxMMii	-1.3009
-3.5120	mmaaxxMMt0eelloo	-1.3006
-3.5120	mmaaxxMMxxNN	-1.3009
-3.5120	mmeeS0s0eec0iiP0xxLL	-1.3008
-3.5120	mmeeaalliiee	-1.3009
-3.2110	mmeeee	-1.5994
-3.5120	mmeekkxxNNhheeSSt0aa	-1.2566
-3.5120	mmeemmiiLLkkooCH	-1.2998
-3.5120	mmeemmiiLLp0aaTHiit0aa	-1.2566
-3.5120	mmeengc0vvMMii	-1.2990
-3.0349	mmeeuu	-1.3006
-3.5120	mmeeuuNN	-1.3009
-3.5120	mmiiNNc0ooK0c0vvK0iiNN	-1.3008
-3.0349	mmiiNNc0ooK0xi	-1.2994
-3.2110	mmiiT0k0oo	-1.3006
-3.5120	mmiiTHee	-1.3009
-3.5120	mmiiTHiinnaa	-1.3009
-3.5120	mmiiTHxi	-1.3009
-3.5120	mmiiaaNNhheeSSt0aa	-1.2566
-3.5120	mmiic0vvK0iiNN	-1.3009
-3.5120	mmiiiiNNii	-1.3009
-3.2110	mmiiiiNNxxLL	-1.3008
-3.5120	mmiik0aaNNii	-1.3009
-4.5120	mmiis0eengmmuuLLiiNNt0ee
-3.5120	mmiis0uuLLphuuMMxxLL	-1.3008
-3.5120	mmooK0S0xxLL	-1.3009
-3.5120	mmooK0ii	-1.3008
-3.5120	mmooK0t0vvLLmmiik0aa	-1.3006
-3.2110	mmooLLllaaSSt0aa	-1.5577
-3.5120	mmooLLllyv	-1.3001
-3.5120	mmooMMp0uulliiMMee	-1.3009
-3.5120	mmooMMttuungiillxxLL	-1.3009
-3.5120	mmooMMxxLL	-1.3009
-3.5120	mmooP0s0ii	-1.3009
-3.0349	mmooS0	-1.4742
-3.5120	mmooS0hhaak0iinnaa	-1.2982
-3.5120	mmooS0hhaak0oo	-1.3009
-3.5120	mmooS0t0xxLLxxNN	-1.3009
-3.5120	mmoollxxNNt0aa	-1.2566
-3.0349	mmoollxxk0ee	-1.3005
-3.5120	mmoollxxk0oo	-1.3004
-3.5120	mmoollxxnnxxNN	-1.3008
-3.5120	mmoollxxnnxxNNc0ii	-1.3005
-3.5120	mmoollxxt0aaNN	-1.3009
-3.5120	mmoonneek0iik0aa	-1.3009
-3.5120	mmoonneek0iit0oo	-1.3009
-3.5120	mmoos0vvlliik0aa	-1.3009
-3.5120	mmoos0xxP0	-1.2994
-3.5120	mmoos0xxP0ii	-1.3009
-3.5120	mmoos0xxP0iiLL	-1.3004
-3.5120	mmoos0xxP0iillaannxxNN	-1.3009
-2.6089	mmoos0xxP0xxLL	-1.2982
-3.2110	mmoos0xxP0xxNN	-1.3002
-3.5120	mmoot0eeLLlloo	-1.2982
-4.5120	mmoot0xxNN
-3.5120	mmooyangiit0aa	-1.2566
-3.5120	mmooyvs0vv	-1.3009
-3.0349	mmooyvt0xxLLvvSSt0aa	-1.7337
-3.5120	mmuuK0c0vvngp0aaTHiillaammyvNN	-1.3006
-2.8131	mmuuLL	-1.2994
-3.5120	mmuuLLc0aangnnaaNNiivvSSt0aa	-1.2566
-3.0349	mmuuLLc0aangnnaaNNxxLL	-1.4743
-4.5120	mmuuLLc0iiLLii
-4.5120	mmuuLLc0iiLLiillaannxxNN
-4.5120	mmuuLLc0iiLLxi
-4.5120	mmuuLLc0iiLLxxLL
-3.5120	mmuuLLii	-1.3009
-3.5120	mmuuLLk0iik0aa	-1.3009
-3.5120	mmuuLLk0vvNNiillaaNN	-1.3009
-3.2110	mmuuLLk0vvNNxxLL	-1.3008
-3.0349	mmuuLLllooNN	-1.3005
-3.5120	mmuuLLllvvnnaaSSt0aa	-1.2566
-3.2110	mmuuLLmmaaNN	-1.3006
-3.5120	mmuuLLs0eeaaLLk0wa	-1.3009
-3.5120	mmuuLLs0eeaaLLxi	-1.3008
-3.5120	mmuuLLs0eeaaLLxxLL	-1.3009
-3.5120	mmuuLLs0uuk0vvNNxxlloo	-1.3009
-3.2110	mmuuLLxxLL	-1.3006
-3.5120	mmuuNNc0eewa	-1.3009
-3.5120	mmuuNNc0iillxxk0oo	-1.3009
-3.5120	mmuuNNhhaaK0c0vvK0iiNN	-1.3009
-3.0349	mmuuNNhhaaK0ee	-1.3006
-3.5120	mmuuNNhhaaK0ees0vv	-1.3005
-3.5120	mmuuNNhhaaK0ees0vvnnxxNN	-1.3009
-3.5120	mmuuNNhhaaK0ii	-1.2996
-3.5120	mmuuNNhhaaK0k0wa	-1.3009
-3.2110	mmuuNNhhaaK0xi	-1.3002
-3.5120	mmuuNNhhaaK0xxNN	-1.3005
-3.5120	mmuuNNmmeeng	-1.3009
-3.5120	mmuuNNt0xxK0	-1.2996
-4.5120	mmuuhhaaNNhhaat0aa
-3.5120	mmuuk0eellaat0oo	-1.3009
-3.5120	mmuullxxPHeet0aa	-1.3008
-3.5120	mmuullyoee	-1.3009
-3.5120	mmuullyvP0	-1.3002
-3.5120	mmuunnooNNeennxxNN	-1.3009
-4.5120	mmuus0vvuuNN
-2.9100	mmuus0xxNN	-1.4250
-3.5120	mmuut0vvMMt0xxLLii	-1.3009
-3.2110	mmuuttuuK0ttuuK0hhaaNN	-1.3008
-3.5120	mmuuuu	-1.2984
-3.5120	mmuuvvLL	-1.2996
-3.5120	mmuuvvS0iiNNk0aallxxLL	-1.3009
-3.5120	mmuuvvS0xxLL	-1.3008
-3.5120	mmvvK0iik0iik0aa	-1.2993
-4.5120	mmvvK0k0ii
-4.5120	mmvvK0k0iit0oo
-3.0349	mmvvK0k0oo	-1.3002
-3.5120	mmvvK0k0uullvvngiik0aa	-1.3009
-4.5120	mmvvK0nnxxNN
-4.5120	mmvvK0nnxxNNt0aa
-4.5120	mmvvK0vv
-3.5120	mmvvK0vvSSt0aa	-1.2566
-3.5120	mmvvK0vvSSvvSSt0aa	-1.2566
-3.5120	mmvvLLc0ii	-1.3008
-3.5120	mmvvNN	-1.3009
-3.5120	mmvvNNc0vv	-1.3008
-3.5120	mmvvc0iiaaNNHHaa	-1.2982
-3.5120	mmwvLLkkaa	-1.2566
-3.5120	mmyvCH	-1.3009
-4.5120	mmyvCHmmaaNN
-3.5120	mmyvK0k0aaMMnnxxNN	-1.3008
-3.5120	mmyvK0mmaaNN	-1.3009
-3.5120	mmyvK0xxLL	-1.3009
-3.5120	mmyvLLs0iiwa	-1.3009
-4.5120	mmyvNNees0vv
-4.5120	mmyvNNii
-3.2110	mmyvchiiLLccee	-1.3000
-3.2110	nnaa	-1.3005
-3.5120	nnaaC0c0aaMMiillaat0oo	-1.3009
-3.2110	nnaaLL	-1.2992
-3.5120	nnaaLLaawaSSt0aa	-1.2566
-3.5120	nnaaLLii	-1.3009
-3.5120	nnaaLLiiLLs0uullooK0	-1.3009
-3.5120	nnaaLLp0uuthvv	-1.3009
-3.5120	nnaaLLsseek0ee	-1.3008
-3.2110	nnaaLLxxNN	-1.2990
-3.5120	nnaaMMchvvNNk0aangii	-1.3009
-3.5120	nnaaMMii	-1.3009
-2.9100	nnaaNN	-1.2997
-3.5120	nnaaSSt0aa	-1.2566
-3.5120	nnaak0aa	-1.3009
-3.2110	nnaak0aallyvnnxxNN	-1.3008
-3.5120	nnaammuu	-1.3009
-3.5120	nnaammuullxxLL	-1.3009
-3.5120	nnaammuuwa	-1.3004
-3.5120	nnaammvvc0ii	-1.3008
-3.5120	nnaammyvNN	-1.3009
-2.6732	nnaannxxNN	-1.2900
-3.5120	nnaaooc0ii	-1.3005
-3.5120	nnaaoommyvNN	-1.3008
-3.2110	nnaaoonnxxNN	-1.3002
-3.5120	nnaaoot0xxS0	-1.2566
-3.5120	nnaaphuuLLk0vvlliimmyv	-1.2996
-3.2110	nnaat0oo	-1.3006
-3.5120	nnaat0oollooK0	-1.3009
-3.5120	nnaat0vvnnii	-1.3008
-3.5120	nnaathaannaa	-1.2990
-3.5120	nnaathaannaaNNt0aa	-1.2566
-3.5120	nnaathaannaaNNt0aannxxNN	-1.3009
-3.5120	nnaathaannaac0ii	-1.3004
-3.5120	nnaathaannaalliillaa	-1.2566
-3.5120	nnaathaannaannxxNN	-1.3009
-3.5120	nnaathaanneennxxNN	-1.3009
-3.2110	nnaawaSSt0aa	-1.5577
-3.5120	nnaawaSSt0aak0oo	-1.3009
-3.5120	nnaawaya	-1.3009
-3.5120	nnaaxxNN	-1.2997
-2.8131	nnee	-1.3002
-4.5120	nneeNN
-3.0349	nneeNNt0aa	-1.7337
-3.5120	nneeS0mmuuLLxxLL	-1.3009
-3.5120	nneeSSt0aa	-1.2566
-3.5120	nneec0uuNNt0aa	-1.2566
-3.5120	nneeee	-1.3009
-2.5578	nneek0aa	-1.2963
-3.5120	nneek0oo	-1.3008
-3.5120	nneellyvk0aa	-1.3008
-3.5120	nneellyvoonnxxNN	-1.3008
-3.5120	nneellyvt0aap0ooaaSSt0aa	-1.2566
-3.5120	nneellyvwaSSt0aa	-1.2566
-3.5120	nneellyvya	-1.2989
-3.5120	nneemmyv	-1.3009
-3.5120	nneemmyvNNs0vv	-1.3005
-3.5120	nneennwaSSt0vvnnii	-1.3009
-3.5120	nneeyongxxNN	-1.3009
-3.0349	nnooHHaa	-1.4767
-3.5120	nnooHHchiik0oo	-1.3006
-3.2110	nnooHHk0oo	-1.3008
-3.5120	nnooHHnnxxNN	-1.3005
-3.0349	nnooHHxxNN	-1.4765
-3.5120	nnooHHxxmmyvNN	-1.3008
-3.5120	nnooK0k0ii	-1.3009
-3.5120	nnooK0yvs0vv	-1.3009
-3.5120	nnooLLiithvvlloo	-1.3009
-3.5120	nnooLLllaa	-1.3009
-3.5120	nnooLLllyv	-1.3005
-3.2110	nnooNNk0wa	-1.6018
-3.5120	nnooNNp0aaTHt0uullvvngee	-1.3005
-3.5120	nnooNNp0aaTHt0uullvvngxxLL	-1.3006
-3.5120	nnooiiNNc0aang	-1.3009
-3.0496	nnooiiNNee	-1.4620
-3.5120	nnooiiNNii	-1.2989
-3.5120	nnooiiNNiit0aa	-1.2566
-3.5120	nnooiiNNiivvSSt0aa	-1.2566
-3.5120	nnooiiNNt0aawv	-1.3008
-3.5120	nnooiiNNt0xxLLii	-1.3009
-3.2110	nnooiiNNxxNN	-1.3002
-3.5120	nnooiiNNxxNNt0aallxxNN	-1.3002
-3.5120	nnoolleehhaannxxNN	-1.3005
-3.5120	nnoolleehhaat0we	-1.3009
-3.5120	nnoolleehheeSSt0aammyvNN	-1.3009
-3.5120	nnoollyvK0	-1.3009
-4.5120	nnoollyvK0hhaammyvNN
-3.5120	nnoollyvK0hhaannxxNN	-1.3009
-4.5120	nnoollyvK0iinnii
-3.5120	nnoollyvK0xxLL	-1.3009
-4.5120	nnoollyvK0xxNN
-2.8131	nnoongchooNN	-1.3970
-3.5120	nnoongchooNNee	-1.3009
-3.5120	nnoongchooNNxi	-1.2982
-3.5120	nnoongchooNNxxLL	-1.3009
-3.5120	nnoongchooNNxxNN	-1.3006
-3.5120	nnoongmmiiNNt0xxLLxi	-1.3004
-3.5120	nnuuNNaaLLii	-1.3009
-3.5120	nnuuNNeemmaaNN	-1.3009
-3.5120	nnuuNNii	-1.3009
-3.5120	nnuuNNk0wa	-1.3009
-3.5120	nnuuNNmmaanguuLLxxNN	-1.2982
-3.5120	nnuuNNmmeewa	-1.3009
-3.5120	nnuuNNs0ooK0iiMMiic0ii	-1.2566
-3.5120	nnuuNNxxLL	-1.3009
-3.5120	nnuuNNxxlloo	-1.3009
-3.5120	nnuuiiya	-1.2986
-3.5120	nnuuk0aa	-1.3005
-3.5120	nnuuk0uuLL	-1.3002
-3.5120	nnuuk0uueek0ee	-1.3009
-3.5120	nnuuk0uuiiNNc0ii	-1.3001
-3.5120	nnuuk0xxllvvc0iiNN	-1.3009
-3.5120	nnuuk0xxllvvc0yvSSt0aa	-1.2566
-4.5120	nnuulliiLL
-3.5120	nnuullvvHHk0ee	-1.3009
-3.5120	nnvv	-1.3008
-3.5120	nnvvHHvvSSt0aa	-1.2566
-3.5120	nnvvMMchiinnxxNN	-1.3009
-3.5120	nnvvMMk0yvt0aap0oommyvNNs0vv	-1.3009
-3.5120	nnvvMMvvk0aammyvNN	-1.2997
-3.0349	nnvvk0uulliik0aa	-1.3005
-3.5120	nnvvk0uulliik0uuLLeet0aa	-1.3005
-3.5120	nnvvk0uulliik0uuLLii	-1.2989
-3.2110	nnvvk0uulliinnxxNN	-1.3008
-3.5120	nnvvk0uulliip0oot0aat0oo	-1.3008
-3.5120	nnvvllxxLL	-1.3009
-3.0349	nnvvmmuu	-1.3000
-3.5120	nnvvmmvv	-1.3009
-3.5120	nnvvmmvvee	-1.3006
-3.0349	nnvvxi	-1.2981
-3.5120	nnwiuuchyvSSt0aa	-1.2566
-3.5120	nnwiyvS0nnwiyvS0	-1.3009
-3.2110	nnxxC0k0ee	-1.6018
-3.5120	nnxxC0vvc0iiNNt0aanniikkaa	-1.2566
-3.5120	nnxxC0xxNN	-1.2997
-3.5120	nnxxK0c0aangiit0aa	-1.2566
-3.5120	nnxxLL	-1.3009
-3.2110	nnxxLLK0xxNN	-1.6017
-3.5120	nnxxLLvvc0iik0ee	-1.3009
-3.0349	nnxxkkiiMMxxLL	-1.3004
-4.5120	nnxxkkiik0ee
-3.5120	nnxxkkiinnxxNNk0aa	-1.3001
-3.2333	nnxxkkyvSSt0aa	-1.5354
-3.5120	nnxxthiinnaammuu	-1.3009
-3.5120	nnyvNN	-1.3009
-3.2110	ooLLMMk0iiNN	-1.6007
-3.5120	ooLLllaa	-1.3009
-3.5120	ooLLllaaSSt0aa	-1.2566
-3.5120	ooLLllaawas0vv	-1.3009
-3.5120	ooNN	-1.3009
-3.5120	ooNNc0oongiiLLxxLL	-1.3009
-3.5120	ooNNt0oollxxLL	-1.3009
-3.5120	ooNNt0oonnxxNN	-1.3009
-3.2110	ooNNthoong	-1.3008
-3.5120	ooS0k0aaMMii	-1.3000
-3.5120	ooS0xxLL	-1.3005
-3.5120	ooc0iiK0	-1.3009
-3.2110	oohhiillyv	-1.3006
-3.5120	oollee	-1.3009
-3.5120	oolleeNN	-1.3004
-3.5120	oolliixi	-1.3009
-3.5120	oollooc0ii	-1.3005
-3.5120	oommyvNN	-1.3009
-3.5120	oongk0iic0oongk0ii	-1.3006
-4.5120	oonnxxLLnnaaLLkkaac0ii
-4.5120	oonnxxLLnnaaLLkkaac0iit0oo
-3.2110	oonnxxLLxxNN	-1.3005
-3.2110	oonnxxNN	-1.2992
-3.5120	oos0ooLLk0iiLLii	-1.3008
-3.5120	oos0uunnxxNN	-1.3008
-3.5120	p0aaK0t0oonghhyvK0iillaaNN	-1.3009
-3.5120	p0aaKKees0vv	-1.3009
-3.5120	p0aaKKxxlloo	-1.3004
-3.5120	p0aaLLccxxMMmmaaNN	-1.3009
-3.5120	p0aaLLhhaannxxNN	-1.3008
-4.5120	p0aaLLhhwis0iikhiiLL
-3.5120	p0aaLLii	-1.3004
-3.5120	p0aaLLk0yvNNhhaaNNt0aa	-1.2566
-3.5120	p0aaLLk0yvNNiiLL	-1.3005
-3.5120	p0aaLLllaa	-1.3006
-3.5120	p0aaLLp0aaLL	-1.3009
-3.5120	p0aaLLphyot0weLL	-1.3009
-3.5120	p0aaLLphyot0weNN	-1.3009
-3.5120	p0aaLLt0ooT0uuMMxxLL	-1.2989
-3.5120	p0aaMM	-1.3009
-3.5120	p0aaMMkkooCHii	-1.3009
-3.2110	p0aaMMp0aaTHk0ooLLlloo	-1.6017
-3.5120	p0aaMMp0aaTHk0ooLLxxNN	-1.3008
-3.5120	p0aaNNccaaK0k0vvllyvSSt0aa	-1.2566
-3.2110	p0aaNNt0xxs0ii	-1.3008
-3.5120	p0aaNNyvnghhaannxxNNk0aa	-1.3001
-3.5120	p0aaNNyvngiik0oo	-1.3009
-3.5120	p0aaNNyvngt0weNN	-1.3009
-3.5120	p0aaNNyvngt0wek0oo	-1.3009
-3.5120	p0aaNNyvngt0wennxxNN	-1.2996
-3.2110	p0aaP0ii	-1.3006
-3.5120	p0aaT0k0ee	-1.3004
-3.5120	p0aaT0k0iit0oo	-1.2989
-3.2110	p0aaT0nnxxNN	-1.2994
-3.5120	p0aaT0t0xxLLvv	-1.3009
-3.5120	p0aak0aa	-1.2998
-3.2110	p0aallaaMM	-1.3006
-3.5120	p0aallaaMMc0iiK0hhaaNN	-1.2996
-3.5120	p0aallaaMMchvvllvvMM	-1.3009
-3.5120	p0aallaaMMkkxxTHii	-1.3009
-3.5120	p0aallaaNNt0aa	-1.2566
-3.5120	p0aallaac0ii	-1.3004
-3.5120	p0aallaammyvNNs0vv	-1.3008
-3.0349	p0aallaap0ook0oo	-1.2970
-3.5120	p0aallaap0oonnxxNN	-1.3009
-3.5120	p0aanghheehhaannxxNN	-1.3009
-2.9100	p0aangmmaangiillxxLL	-1.2975
-3.5120	p0aangmmaangiinnxxNN	-1.2998
-3.5120	p0aangmmaangiit0aa	-1.2566
-3.5120	p0aangmmaangiit0oo	-1.3002
-4.5120	p0aangp0vvP0iiLL
-4.5120	p0aangp0vvP0iit0aa
-4.5120	p0aangp0vvP0xxLL
-4.5120	p0aangp0vvP0xxNN
-3.0349	p0aap0oo	-1.2550
-3.5120	p0aappxxnnii	-1.3008
-3.5120	p0aat0aaS0k0aaee	-1.3009
-3.5120	p0aat0oongk0vvllyvSSt0aa	-1.2566
-3.5120	p0aat0oongk0vvllyvt0oo	-1.3006
-3.5120	p0ee	-1.3009
-3.2110	p0eek0aa	-1.6017
-3.2110	p0eellxxLL	-1.6018
-3.5120	p0eennaa	-1.3006
-3.5120	p0eephuuLLvv	-1.3009
-4.5120	p0eeuuLL
-4.5120	p0eeuuNN
-4.5120	p0eeuuk0ee
-4.5120	p0eeuuk0ii
-4.5120	p0eeuuk0iieennxxNN
-4.5120	p0eeuunnxxNN
-4.5120	p0eewv
-3.5120	p0eewvya	-1.3004
-3.5120	p0eeyvLLhhaayv	-1.3009
-3.5120	p0iiC0vv	-1.3006
-3.5120	p0iiCHii	-1.3009
-3.2110	p0iiCHnnaannxxNN	-1.3006
-3.5120	p0iiCHxxLL	-1.3002
-3.5120	p0iiNN	-1.3008
-3.5120	p0iic0uungxxLL	-1.3009
-3.5120	p0iichiik0ii	-1.3000
-3.5120	p0iichiivvSSt0aa	-1.2566
-3.5120	p0iichuuvv	-1.3009
-3.5120	p0iihhaayv	-1.3009
-3.5120	p0iihhee	-1.3008
-4.5120	p0iihhyvNNs0iiLLc0vvK0iiNN
-4.5120	p0iik0yoc0vvK0
-3.5120	p0iikhiiLL	-1.3009
-3.5120	p0iikhiik0iillxxLL	-1.3009
-3.5120	p0iikhyv	-1.3009
-3.2110	p0iilloos0oo	-1.3008
-3.5120	p0iip0iit0ee	-1.3006
-3.5120	p0iip0vvP0xxLL	-1.2566
-3.5120	p0iissaaSSt0aa	-1.2566
-3.5120	p0iissaak0ee	-1.3009
-3.5120	p0iissaak0vvt0xxNN	-1.3005
-3.5120	p0iit0aaNNc0ook0ee	-1.2566
-3.5120	p0iit0aaNNk0yvLLp0oot0aat0oo	-1.2996
-3.5120	p0ooK0hhaaP0c0vvK0iik0oo	-1.3009
-2.9100	p0ooLL	-1.5992
-3.5120	p0ooLLs0uullooK0	-1.3009
-3.5120	p0ooMM	-1.2986
-3.5120	p0ooMMiimmyvNN	-1.3009
-3.5120	p0ooNN	-1.3009
-3.5120	p0ooNNc0iiLLxxLL	-1.3009
-3.5120	p0ooNNwik0aa	-1.3005
-3.5120	p0ooNNwit0aa	-1.2566
-3.5120	p0ooaaSSt0aa	-1.2566
-3.5120	p0ooaaSSt0aak0oo	-1.3009
-4.5120	p0ooaas0vv
-3.5120	p0ooaas0vvnnxxNN	-1.3009
-3.5120	p0ooc0aa	-1.3004
-3.2110	p0ooc0ii	-1.3006
-3.5120	p0ooc0iit0oo	-1.3009
-3.0349	p0ooiic0ii	-1.3005
-3.5120	p0ooiik0ii	-1.3005
-4.5120	p0ooiik0oo
-3.5120	p0ooiillyvk0oo	-1.3009
-3.2110	p0ooiinnxxNN	-1.2981
-3.5120	p0ook0iieennxxNN	-1.3009
-4.5120	p0ook0iilloo
-2.9100	p0ook0iit0oo	-1.4210
-3.2110	p0ook0oo	-1.3008
-3.5120	p0oollaaMMiik0ii	-1.3006
-3.5120	p0oollaaMMxxLL	-1.3008
-3.5120	p0oolliik0aa	-1.3009
-3.5120	p0oolliillxxLL	-1.3009
-3.5120	p0oollyvnnxxNN	-1.3009
-3.0349	p0oommyvNN	-1.3002
-3.5120	p0oongs0aat0oo	-1.2989
-3.5120	p0oonnii	-1.3001
-3.5120	p0oonnxxNN	-1.3009
-3.5120	p0oos0iioo	-1.2566
-3.5120	p0oot0vvnnii	-1.2998
-3.5120	p0oot0xxllaaP0k0oo	-1.3009
-3.5120	p0ootheeSSt0vvNN	-1.2993
-3.5120	p0oothoongxi	-1.2997
-3.2110	p0ooyv	-1.3008
-3.5120	p0uuLLchiiNNc0vvLLhhaak0oo	-1.3008
-4.5120	p0uuLLk0aannxxnghhaaNN
-3.5120	p0uuLLkhwehhaak0ii	-1.3009
-3.5120	p0uuLLkkooCHxxNN	-1.3000
-3.5120	p0uuLLllvvSSnnxxNNt0ee	-1.2986
-3.5120	p0uuLLnnooLLiillxxLL	-1.3006
-3.5120	p0uuLLphyvngt0oo	-1.3009
-3.2110	p0uuLLthaaNN	-1.3008
-3.5120	p0uuLLvv	-1.3009
-3.5120	p0uuLLvvSSt0aa	-1.2566
-2.9100	p0uuLLxxLL	-1.3005
-4.5120	p0uuLLxxNN
-3.5120	p0uuNNhhoong	-1.3009
-4.5120	p0uuNNxi
-3.5120	p0uuTHiiLL	-1.3001
-3.5120	p0uuTHiiNNt0aa	-1.2566
-3.5120	p0uuTHiiNNt0aak0oo	-1.3000
-3.5120	p0uuTHiik0oo	-1.3009
-3.5120	p0uuTHvvs0vv	-1.3008
-4.5120	p0uuc0iillvvNNiit0aa
-3.5120	p0uuchee	-1.3009
-3.5120	p0uuhhxxngs0iikhiik0ii	-1.3008
-3.5120	p0uulleellxxLL	-1.3000
-3.2110	p0uullxxmmyvNN	-1.3008
-3.5120	p0uullxxnnxxNN	-1.2997
-3.5120	p0uut0ii	-1.3009
-3.5120	p0uut0xxllvvuuNN	-1.3009
-3.5120	p0uuthaaK0hheeSSt0aa	-1.2566
-3.5120	p0uuthaaK0xxLL	-1.2989
-3.2110	p0vvLL	-1.3008
-3.5120	p0vvLLiik0iit0oo	-1.2989
-3.2110	p0vvLLssvv	-1.3006
-3.2110	p0vvLLttvvK0	-1.3008
-3.5120	p0vvLLyvSSt0aa	-1.2566
-3.2110	p0vvNN	-1.2981
-2.8131	p0vvNNc0yv	-1.2974
-3.5120	p0vvNNiik0oo	-1.3008
-3.5120	p0vvNNp0vvNNii	-1.3009
-3.5120	p0vvNNssiiK0iinnaa	-1.3009
-3.2110	p0vvNNxxLL	-1.6018
-3.5120	p0vvP0ii	-1.3001
-3.5120	p0vvP0iik0vvt0xxNN	-1.3009
-3.5120	p0vvS0vv	-1.3009
-3.5120	p0vvlliiMMxxlloossvv	-1.3009
-4.5120	p0vvlliik0oo
-3.5120	p0vvllvvK0	-1.3009
-3.5120	p0vvllxxS0ii	-1.3009
-3.5120	p0vvllyv	-1.3009
-3.5120	p0vvllyvSSnnxxNNc0ii	-1.3009
-3.2110	p0vvllyvSSt0aa	-1.5577
-3.5120	p0wat0oo	-1.3008
-3.2110	p0wec0ii	-1.3002
-4.5120	p0yvLLc0aangt0oo
-3.5120	p0yvLLlloo	-1.3005
-3.5120	p0yvLLt0xxLLt0oo	-1.3006
-3.5120	p0yvLLxxNN	-1.2986
-3.5120	p0yvTHxxLL	-1.3009
-3.5120	phaaLLccaaK0phaaLLccaaK0	-1.3006
-3.5120	phaaLLk0eeSSs0oohhaannxxNN	-1.3009
-3.5120	phaaLLk0wa	-1.3009
-3.5120	phaannxxNN	-1.3009
-3.5120	phaannxxllaak0oo	-1.3008
-3.5120	pheellxxLL	-1.3008
-4.5120	phiiLLyohhaaNN
-4.5120	phiiLLyohhaak0oo
-3.5120	phiiLLyolloo	-1.3009
-3.5120	phiiNN	-1.3006
-3.0349	phiik0oo	-1.3004
-3.5120	phiimmyvNN	-1.3009
-3.5120	phiiphyehhaaNN	-1.3009
-3.5120	phiiphyet0wevv	-1.3009
-3.5120	phiiuuk0oo	-1.3008
-3.5120	phiivv	-1.3009
-3.5120	phiivvnnaaNN	-1.3008
-3.5120	phiivvnnaaya	-1.3004
-3.5120	phuuLLllyvSSt0aa	-1.2566
-3.2110	phuuLLxxLL	-1.3005
-3.5120	phuullxxllxxMM	-1.3008
-3.5120	phuullxxllxxMMxxlloo	-1.3009
-4.5120	phuungp0uuhhaak0ee
-3.5120	phuungs0vvnghhaak0ee	-1.3009
-3.5120	phuuuuphuuuu	-1.2984
-3.5120	phvvngphvvc0iiMMhhaaNN	-1.3009
-3.5120	phvvs0vv	-1.2984
-3.5120	phyohhyvNNhhaaLL	-1.3005
-3.5120	phyohhyvNNhhaak0ii	-1.3002
-3.5120	phyohhyvNNiik0ii	-1.3006
-3.5120	phyohhyvNNt0weNN	-1.3008
-3.5120	phyvc0iic0ii	-1.3008
-3.5120	phyvk0oo	-1.3009
-3.5120	phyvngp0vvMMhhaak0oo	-1.3009
-3.5120	ppaaLLaat0xxLLiit0xxS0	-1.3009
-3.5120	ppaaLLk0eec0iit0oollooK0	-1.3005
-3.2110	ppaaLLk0oo	-1.6015
-3.5120	ppaaLLlleeees0vv	-1.3009
-3.5120	ppaaLLlleek0aa	-1.3009
-3.2110	ppaaLLlleellxxLL	-1.2998
-3.5120	ppaaLLlleennxxNN	-1.3008
-3.2110	ppaaLLllii	-1.3008
-3.5120	ppaaNNhhii	-1.3009
-3.5120	ppaac0iiNN	-1.3009
-3.5120	ppaac0yvSSt0aa	-1.2566
-4.5120	ppaangmmaaNNxxlloo
-3.5120	ppaat0xxS0hhee	-1.3006
-3.5120	ppeeaaS0k0iiNN	-1.3008
-3.5120	ppiiLLk0iillxxLL	-1.3009
-3.5120	ppooyaHHk0ee	-1.3009
-3.5120	ppuuLLee	-1.3009
-3.5120	ppuuMMvvc0iinnxxNN	-1.3005
-3.5120	ppuuNN	-1.3009
-3.5120	ppuuNNiillaaNN	-1.3002
-3.5120	ppvvT0k0oo	-1.3009
-3.5120	ppvvkkuuk0ii	-1.3009
-3.5120	ppvvkkuuk0iinnxxNN	-1.3009
-3.5120	s0aa	-1.3005
-3.5120	s0aaK0c0vvngii	-1.3009
-3.2110	s0aaLL	-1.3004
-3.5120	s0aaLLMM	-1.3009
-3.5120	s0aaLLMMees0vv	-1.3008
-3.5120	s0aaLLMMii	-1.3009
-2.4706	s0aaLLMMxi	-1.5620
-3.2110	s0aaLLMMxxLL	-1.2996
-3.5120	s0aaLLMMxxNN	-1.3009
-3.5120	s0aaLLaak0aaLL	-1.3009
-3.5120	s0aaLLaak0aammyvNNs0vv	-1.3009
-3.5120	s0aaLLaak0aannxxNN	-1.3009
-3.5120	s0aaLLc0iiNN	-1.3009
-3.5120	s0aaLLk0ii	-1.3000
-3.5120	s0aaLLk0oo	-1.3009
-3.5120	s0aaLLlliit0oollooK0	-1.3008
-4.5120	s0aaLLllyvk0oo
-3.5120	s0aaLLp0vvLLhhaak0oo	-1.3009
-3.5120	s0aaLLphyvp0ook0iilloo	-1.3000
-3.5120	s0aaMM	-1.3009
-3.5120	s0aaMMkhyvSSt0aa	-1.2566
-4.5120	s0aaMMxi
-3.2110	s0aaNN	-1.3008
-3.5120	s0aaNNeennxxNN	-1.3009
-3.5120	s0aaNNk0aaNN	-1.3009
-3.5120	s0aaNNk0ooLLccaak0iiee	-1.3009
-3.2110	s0aaNNk0wa	-1.6018
-3.5120	s0aaNNmmaaNNhhaaNN	-1.3002
-3.5120	s0aaNNp0aaLLchii	-1.3009
-3.5120	s0aaNNs0eeaaLLk0wa	-1.3009
-4.5120	s0aaNNt0aa
-4.5120	s0aaNNt0aannxxNN
-3.2110	s0aaNNt0oo	-1.3002
-3.5120	s0aaNNxxLL	-1.3009
-3.5120	s0aac0iillxxLL	-1.3009
-3.5120	s0aahhwe	-1.3009
-3.5120	s0aahhwec0vvK0iiNN	-1.3008
-3.5120	s0aahhwellxxLL	-1.3009
-3.5120	s0aaiiS0k0iiLLlloo	-1.3009
-3.5120	s0aaiiiimmyvNNs0vv	-1.3004
-4.5120	s0aak0oo
-2.9100	s0aallaaMMii	-1.3000
-3.5120	s0aallaaMMmmaat0aa	-1.3005
-3.5120	s0aallaaMMt0oo	-1.2998
-3.0349	s0aallaaMMt0xxLLxxNN	-1.3006
-3.0349	s0aallaaMMxi	-1.3005
-3.5120	s0aallaaMMxxLL	-1.3009
-4.5120	s0aallaaMMxxNN
-3.5120	s0aallaang	-1.3008
-3.5120	s0aallaanghhaannxxNN	-1.3009
-3.5120	s0aallaangk0wa	-1.3004
-3.5120	s0aammyvNN	-1.3009
-3.5120	s0aangllooK0s0uuee	-1.3008
-3.5120	s0aangllooK0s0uueennxxNN	-1.3008
-3.5120	s0aangllooK0s0uuees0vv	-1.3009
-3.5120	s0aangs0aanghhaaLL	-1.2992
-3.5120	s0aangt0aanghhaaNN	-1.3004
-4.5120	s0aangthoonghhaannxxNN
-3.5120	s0aannxxNN	-1.2993
-4.5120	s0aannxxNNk0aa
-3.5120	s0aas0aangxxlloo	-1.3009
-3.5120	s0aas0iiLL	-1.2998
-3.5120	s0aas0iiLLc0uuxic0vvK0	-1.3009
-3.5120	s0aas0iiLLmmaaNN	-1.3009
-3.2110	s0aas0iiLLxxLL	-1.3008
-3.5120	s0aas0iiP0yv	-1.3009
-3.2110	s0aauu	-1.2560
-3.5120	s0aayonghhaaNN	-1.3009
-3.2110	s0ee	-1.3008
-3.2110	s0eeMMiit0aa	-1.5577
-3.5120	s0eeMMmmuuLLxxLL	-1.3009
-3.5120	s0eek0aaNNnnaaNN	-1.3009
-3.5120	s0eek0iiMMc0iiLLxxLL	-1.3009
-3.5120	s0eek0yellaa	-1.3004
-3.5120	s0eek0yennxxNN	-1.3009
-4.5120	s0eek0yexi
-3.2110	s0eekkii	-1.3000
-3.5120	s0eekkiillaat0oo	-1.3008
-3.2110	s0eekkiillxxLL	-1.3005
-3.5120	s0eekkiis0oonnxxNN	-1.3006
-3.5120	s0eekkiiwannxxNN	-1.3008
-3.5120	s0eelloo	-1.3009
-3.5120	s0eellooP0k0ee	-1.3009
-3.5120	s0eelloouuNN	-1.3008
-3.2110	s0eenghhwaLLees0vv	-1.3008
-3.5120	s0eenghhwaLLxi	-1.3000
-4.5120	s0eenghhwaLLxxNN
-3.5120	s0eengk0aaK0hhaaLL	-1.2992
-3.5120	s0eengk0aaK0hhaaLLs0uullooK0	-1.3009
-3.5120	s0eengk0aaK0hhaammyvNNs0vv	-1.3009
-4.5120	s0eengk0aaK0hhee
-3.5120	s0eengk0aaK0ii	-1.3009
-3.0349	s0eengk0aaK0t0weSSt0aa	-1.7337
-3.5120	s0eengk0yec0iimmaaNN	-1.3008
-3.5120	s0eengk0yennxxNN	-1.3009
-3.5120	s0eengk0yvSSt0aa	-1.2566
-3.5120	s0eengmmyvngxi	-1.3009
-3.5120	s0eengssaaLLii	-1.3009
-3.5120	s0ees0aangees0vv	-1.3008
-3.2110	s0ees0aangii	-1.3005
-3.2110	s0ees0uullxxLL	-1.5994
-3.5120	s0eet0xxLLt0oo	-1.3009
-3.5120	s0eewa	-1.3009
-3.5120	s0iiLLHHc0xxngii	-1.3009
-3.5120	s0iiLLHHvvSSt0aa	-1.2566
-3.5120	s0iiLLc0eelloo	-1.3006
-4.5120	s0iiLLc0eexi
-4.5120	s0iiLLhhyvNNhhaallyvk0oo
-4.5120	s0iiLLhhyvNNhhaammyvNN
-4.5120	s0iiLLhhyvNNiillaannxxNN
-4.5120	s0iiLLhhyvNNt0wevvSSnnxxnnya
-4.5120	s0iiLLhhyvNNxi
-3.5120	s0iiLLkhvvS0	-1.3008
-3.5120	s0iiLLllyvK0ii	-1.3008
-3.5120	s0iiLLs0aangxxLL	-1.3009
-3.5120	s0iiLLs0uullxxLL	-1.3009
-3.5120	s0iiMMc0vvngees0vv	-1.3009
-3.5120	s0iiMMchvvngiihhaaNNthees0vv	-1.3009
-3.5120	s0iiMMhhuuNNxi	-1.3009
-3.5120	s0iiMMhhyvLLxxLL	-1.3008
-3.5120	s0iiMMs0aang	-1.3009
-3.2110	s0iiMMs0aangxxLL	-1.3008
-3.5120	s0iiNNmmyvngnnaannxxNN	-1.3009
-3.5120	s0iiNNyongiit0aa	-1.2566
-3.5120	s0iiP0	-1.3009
-3.5120	s0iic0aaK0hhaaNNt0aa	-1.2566
-3.5120	s0iic0aaK0hhaak0oo	-1.3009
-3.2110	s0iic0aaK0hhaammyvNN	-1.2996
-3.5120	s0iic0aaK0hhaat0vvnnii	-1.3008
-3.0349	s0iic0aaK0hheeSSt0aa	-1.7337
-3.5120	s0iic0vvLLxxLL	-1.3009
-3.5120	s0iiees0vvnnxxNN	-1.3005
-3.5120	s0iihhvvMM	-1.3009
-3.5120	s0iiiiNNxi	-1.3009
-3.5120	s0iik0aa	-1.3004
-3.5120	s0iik0aaK0ee	-1.3008
-3.5120	s0iik0aaK0xxNN	-1.3009
-2.8131	s0iik0aaNNii	-1.3973
-3.5120	s0iik0aaNNxxNN	-1.3009
-3.5120	s0iinnaa	-1.3006
-3.5120	s0iip0oot0aa	-1.2996
-3.5120	s0iit0eeee	-1.3008
-3.5120	s0iit0eek0vvNN	-1.3008
-3.5120	s0iiwvNNhhaaNN	-1.3009
-3.5120	s0iixi	-1.3009
-3.2110	s0oo	-1.2981
-3.2110	s0ooK0	-1.2992
-3.2110	s0ooK0ee	-1.3005
-3.5120	s0ooK0eennxxNN	-1.3009
-3.2110	s0ooK0ees0vv	-1.3008
-3.2110	s0ooK0ii	-1.3008
-3.5120	s0ooK0nnuuNNssvvP0xi	-1.3009
-3.2110	s0ooK0xi	-1.3005
-3.2110	s0ooK0xxLL	-1.3008
-3.5120	s0ooNNc0iiLLhhaaNN	-1.3009
-3.5120	s0ooNNee	-1.3009
-3.5120	s0ooNNii	-1.3005
-3.5120	s0ooNNnniiMM	-1.3009
-3.5120	s0ooNNnniiMMt0xxLLii	-1.3006
-3.5120	s0ooNNp0aat0aaK0ee	-1.3008
-3.5120	s0ooNNp0aat0aaK0xxlloo	-1.3009
-3.5120	s0ooNNxxLL	-1.3009
-3.2110	s0ooNNxxlloo	-1.3002
-3.5120	s0ook0aa	-1.3001
-3.5120	s0oollaa	-1.3009
-3.5120	s0oolliik0aa	-1.3008
-3.0349	s0oollxxLL	-1.3004
-3.5120	s0oommaanghhaannxxNN	-1.2996
-3.5120	s0oommeellxxLL	-1.3009
-3.5120	s0oongaac0iik0aa	-1.3008
-3.5120	s0oongaac0iillxxLL	-1.3008
-3.5120	s0oongaac0iimmaaNNkhxxMM	-1.3009
-3.5120	s0oongaac0iinnxxNN	-1.3009
-3.5120	s0oonnxxNN	-1.3009
-3.2110	s0oonnyv	-1.3005
-3.5120	s0oonnyvNNii	-1.3008
-3.5120	s0oonnyvNNxi	-1.3009
-2.3981	s0oonnyvNNxxNN	-1.2931
-3.2110	s0oonnyviik0iillxxLL	-1.3008
-2.4706	s0oonnyvk0aa	-1.2975
-3.5120	s0oonnyvllaannxxNN	-1.3008
-3.5120	s0oonnyvllxxLL	-1.3009
-2.8131	s0oonnyvnnxxNN	-1.3004
-3.2110	s0oonnyvt0xxLLxi	-1.3008
-2.8131	s0oonnyvxi	-1.3969
-3.5120	s0oop0ii	-1.3009
-3.2110	s0oos0vvLLees0vvnnxxNN	-1.2994
-3.2110	s0oos0vvLLii	-1.3008
-3.5120	s0oos0vvLLiinnaa	-1.3009
-3.5120	s0oos0vvLLiit0aa	-1.2566
-3.5120	s0oos0vvLLk0aannxxNN	-1.3005
-3.0349	s0oos0vvLLxxLL	-1.3004
-3.5120	s0oos0vvLLxxNN	-1.3001
-3.2110	s0oot0xxLLxxNN	-1.3008
-3.5120	s0oowvNNiivvSSt0aa	-1.2566
-2.3659	s0uu	-1.4852
-3.5120	s0uuK0c0iihhwangxxLL	-1.3009
-3.5120	s0uuMMk0yvLLii	-1.3009
-3.5120	s0uuMMk0yvc0iiNN	-1.3009
-3.5120	s0uuMMvvs0vv	-1.2998
-3.5120	s0uuNNhhees0vv	-1.3009
-3.5120	s0uuNNk0aaNNmmaaNNxxNN	-1.3009
-3.5120	s0uuNNk0yvLLmmaaNNii	-1.3004
-3.5120	s0uuNNs0uuNNhhii	-1.3009
-3.5120	s0uuNNs0uuhhaaNN	-1.3009
-3.5120	s0uuNNs0uuhhaak0ee	-1.3009
-3.5120	s0uuPH	-1.3008
-3.5120	s0uuS0c0ee	-1.3009
-3.2110	s0uuk0aa	-1.6008
-3.5120	s0uuk0oollxxLL	-1.2998
-4.5120	s0uunnxxNN
-3.5120	s0uup0aaKKee	-1.3001
-4.5120	s0uup0aaNNhhaannxxNN
-3.5120	s0uus0uup0aaTHppuuNNiivvSSt0aa	-1.2566
-3.5120	s0uus0uup0aaTHxxLL	-1.3009
-2.9100	s0uut0oo	-1.2962
-4.5120	s0uut0xxK0hhaaMMxxlloossvv
-3.5120	s0uuyvMMee	-1.3004
-3.2110	s0vv	-1.5999
-3.5120	s0vvKKyv	-1.2992
-3.5120	s0vvLLc0vvnghhaaMMxxlloossvv	-1.3008
-3.5120	s0vvLLc0vvnghhaak0oo	-1.3009
-3.5120	s0vvLLlliiP0hhaak0iit0oo	-1.3009
-3.5120	s0vvLLmmyvngxxLL	-1.3009
-4.5120	s0vvNNchvvNNc0vvK0xxlloo
-3.5120	s0vvSSt0aa	-1.2566
-3.5120	s0vvccooK0xxlloo	-1.2982
-3.0349	s0vvlloo	-1.3006
-4.5120	s0vvngc0iiLL
-4.5120	s0vvngc0iiLLxxLL
-3.5120	s0vvngchwihhaak0ooc0aa	-1.3000
-4.5120	s0vvngiiNNii
-4.5120	s0vvngnnxxngxxLL
-3.5120	s0vvngthvv	-1.3009
-3.5120	s0vvuuLL	-1.3006
-3.5120	s0vvuuLLs0vvnnxxNN	-1.3005
-3.5120	s0wiP0s0aallii	-1.3009
-3.5120	s0wiP0t0aannxxNN	-1.3009
-3.5120	s0xxLLk0iillooP0k0oo	-1.3004
-3.5120	s0xxLLk0iillooP0t0aannxxNN	-1.2997
-3.5120	s0xxLLk0iilloouuMMk0wa	-1.3006
-3.5120	s0xxLLk0iilloouuMMxxNN	-1.3009
-3.5120	s0xxLLk0iilloouuNN	-1.3009
-3.5120	s0xxLLk0iilloowvc0iik0vvllaa	-1.2566
-3.2110	s0xxLLphxxNN	-1.3008
-4.5120	s0xxP0t0xxK0hhaannxxNN
-3.5120	s0xxchyv	-1.3008
-3.5120	s0xxmmyvt0xxnniikkaa	-1.3006
-3.0349	s0xxs0xxlloo	-1.3006
-3.2110	s0xxs0xxllooxi	-1.3006
-3.5120	s0xxwethvv	-1.3009
-3.5120	ssaaHHaa	-1.3009
-3.5120	ssaak0ee	-1.3005
-3.5120	ssaayv	-1.3008
-3.5120	ssiiP0k0iit0oo	-1.2984
-3.5120	ssiiS0k0oo	-1.3009
-3.5120	ssiillxxMMeet0oo	-1.3009
-3.5120	ssiillxxMMt0oo	-1.2984
-3.5120	ssuuK0ii	-1.3009
-3.5120	ssuuK0xxLL	-1.3009
-3.5120	ssvvt0oo	-1.2998
-3.5120	ssvvya	-1.2984
-3.5120	ssxxNNt0aa	-1.2566
-3.5120	ssxxllvvc0iinnxxNN	-1.3009
-2.5578	t0aa	-1.2994
-3.5120	t0aaKKaa	-1.3008
-3.5120	t0aaLLk0oo	-1.3009
-3.0349	t0aaLLllaak0oo	-1.3005
-3.5120	t0aaLLllaak0oohheet0oo	-1.3009
-3.5120	t0aaLLllaak0oommaaNN	-1.3009
-3.5120	t0aaLLllaas0vv	-1.3002
-3.2110	t0aaLLllii	-1.3008
-3.5120	t0aaLLlliiNNt0aa	-1.2566
-3.5120	t0aaLLlliik0ii	-1.3006
-4.5120	t0aaLLllyv
-3.2110	t0aaLLllyvSSt0aa	-1.5577
-3.5120	t0aaMMaa	-1.3009
-3.5120	t0aaMMp0eellxxLL	-1.3009
-3.5120	t0aaNNp0aaLLmmvvlliillxxLL	-1.3009
-3.5120	t0aaNNphuungk0wa	-1.3009
-3.5120	t0aachiik0ii	-1.3009
-3.5120	t0aahheengiivvSSt0aa	-1.2566
-3.5120	t0aak0aaook0iit0oo	-1.2989
-3.5120	t0aalliimmyvNN	-1.3009
-3.5120	t0aallxxLL	-1.3009
-2.9100	t0aallxxNN	-1.2984
-4.5120	t0aallxxk0oo
-3.5120	t0aallxxt0aa	-1.2566
-4.5120	t0aammaaNN
-3.5120	t0aangmmyvNNhhaaNN	-1.3009
-3.5120	t0aangs0ii	-1.3009
-3.5120	t0aas0ii	-1.3009
-3.5120	t0aas0vvS0	-1.3008
-3.5120	t0aas0xxlliiLL	-1.3005
-3.5120	t0aat0xxMMiiS0s0aaLLii	-1.3009
-3.5120	t0aat0xxMMiic0iiLLhhaaLL	-1.3001
-3.0349	t0aaxxMM	-1.3005
-3.5120	t0aayanghhaat0aa	-1.2566
-2.7339	t0ee	-1.3793
-3.5120	t0eeccooK0ii	-1.3009
-3.2110	t0eehhaaNN	-1.3002
-3.5578	t0eehhees0vv	-1.2552
-3.5120	t0eehhwachiik0oonnxxNN	-1.3006
-3.5120	t0eek0aa	-1.3004
-4.5120	t0eek0aallxxLL
-4.5120	t0eek0aannxxNN
-3.5120	t0eek0oo	-1.3009
-3.5120	t0eekkuuk0aa	-1.2998
-3.5120	t0eelloo	-1.3009
-3.5120	t0eellxxLL	-1.3009
-3.5120	t0eemmaaNN	-1.3009
-3.5120	t0eep0iis0iikhyv	-1.3009
-3.5120	t0ees0iiNN	-1.3009
-3.5120	t0ees0iiNNhhee	-1.3008
-3.2110	t0ees0vv	-1.3006
-3.5120	t0eet0aaNNhhii	-1.3008
-3.5120	t0eet0aaP0iit0aa	-1.2566
-3.5120	t0eeyvs0vvS0ii	-1.3009
-3.5120	t0iit0iiMMt0ooLLxxLL	-1.3009
-3.5120	t0ooK0c0aannxxNN	-1.3009
-4.5120	t0ooK0s0vvngxxLL
-3.5120	t0ooLLaak0aaLL	-1.3009
-3.5120	t0ooLLaak0aak0oo	-1.3009
-3.2110	t0ooLLaaoonnxxNN	-1.3006
-3.5120	t0ooLLaas0vvSSt0aa	-1.2566
-3.5120	t0ooLLaas0vvmmyv	-1.2986
-3.5120	t0ooLLaat0aap0oonnii	-1.3008
-3.0349	t0ooLLllee	-1.3005
-3.5120	t0ooLLlleellaannxxNN	-1.3009
-3.0349	t0ooLLllyv	-1.4767
-3.5120	t0ooLLmmuut0vvk0ii	-1.3009
-3.5120	t0ooT0aaSSk0oo	-1.3009
-3.5120	t0ooT0aannaak0ii	-1.3008
-4.5120	t0ooc0vvhhii
-3.5120	t0oollees0ooLLee	-1.3009
-3.5120	t0oongaaNN	-1.3008
-3.5120	t0oonghhyvK0xi	-1.3009
-4.5120	t0oongmmuuLLii
-4.5120	t0oongmmuuLLxxNN
-3.5120	t0oongs0iiee	-1.3006
-3.5120	t0oongs0vvlloo	-1.3008
-3.5120	t0oongt0eemmuuNN	-1.3009
-3.5120	t0oongt0eemmuuNNees0vv	-1.3008
-3.5120	t0oongt0eemmuuNNxi	-1.3009
-4.5120	t0oot0aaLLhhaaLL
-3.5120	t0oowa	-1.3008
-3.5120	t0uu	-1.3008
-3.5120	t0uuK0	-1.3009
-3.5120	t0uuK0ee	-1.3009
-4.5120	t0uuLLccee
-3.5120	t0uuLLlleeeennxxNN	-1.3009
-3.5120	t0uuLLllyv	-1.2989
-3.5120	t0uuk0oo	-1.3009
-3.5120	t0uullvvngeennxxNN	-1.3009
-3.5120	t0uullvvngxxlloommaaNN	-1.3009
-3.5120	t0uummyvNN	-1.3008
-3.5120	t0uungk0xxLLk0oo	-1.3002
-3.5120	t0uunnxxNN	-1.3009
-3.5120	t0uut0xxllvvc0iiNNt0aa	-1.2566
-3.5120	t0uuvvMM	-1.3009
-2.4706	t0vv	-1.2981
-3.5120	t0vvLLhheec0iiNN	-1.3008
-3.5120	t0vvNNc0iiLL	-1.3009
-3.5120	t0vvNNc0iiNN	-1.3006
-3.5120	t0vvngk0uuLLt0xxLLii	-1.3009
-4.5120	t0vvp0uuLLvv
-3.5120	t0we	-1.2989
-2.9100	t0weLL	-1.2989
-2.8131	t0weNNt0aa	-1.9556
-3.5120	t0weSSnnxxNNt0ee	-1.3008
-3.5120	t0weSSt0aak0oo	-1.3009
-3.5120	t0weSSxxnnii	-1.3005
-3.5120	t0wec0ii	-1.3009
-3.5120	t0wek0eeSSnnii	-1.2566
-3.5120	t0wek0iikkaac0ii	-1.2997
-3.5120	t0wek0iinnxxNN	-1.3009
-3.5120	t0wek0oo	-1.3008
-3.5120	t0wellaak0oo	-1.3009
-4.5120	t0wemmyv
-4.5120	t0wemmyvNN
-3.2110	t0wennaa	-1.2565
-4.5120	t0wennii
-4.5120	t0wennxxNN
-3.5120	t0wes0vv	-1.3009
-3.5120	t0wet0oollooK0	-1.3009
-3.2110	t0wevv	-1.3008
-4.5120	t0wevvs0vvnnxxNN
-3.5120	t0wevvs0vvt0oo	-1.3004
-3.5120	t0wic0iik0oo	-1.3009
-3.5120	t0wiee	-1.3008
-3.5120	t0wieennxxNN	-1.3009
-3.5120	t0willxxLL	-1.3009
-3.5120	t0wip0aakkwic0ii	-1.3008
-3.5120	t0wittaallaaoonnxxNN	-1.2997
-3.5120	t0xxLLk0iiLLxxLL	-1.3009
-3.5120	t0xxLLk0oo	-1.3009
-3.2110	t0xxLLlloo	-1.3008
-3.5120	t0xxLLllxxNN	-1.3008
-3.5120	t0xxLLmmyv	-1.3008
-3.5120	t0xxLLp0uuLLnnooLLiillaak0oo	-1.2989
-3.5120	t0xxLLp0uuLLnnooLLiillxxLL	-1.2984
-3.5120	t0xxLLp0uuLLnnooLLiimmaaNNkhxxMM	-1.3009
-3.2110	t0xxLLt0oo	-1.3005
-3.5120	t0xxLLvv	-1.3006
-3.5120	t0xxLLvvSSt0aa	-1.2566
-3.5120	t0xxLLvvSSvv	-1.2566
-3.5120	t0xxLLvvk0aa	-1.3009
-3.5120	t0xxLLvvk0aannxxNN	-1.3009
-3.5120	t0xxLLvvs0vvSSt0aa	-1.2566
-3.2110	t0xxLLxxNN	-1.3006
-3.5120	t0xxLLyvt0aap0ooNNt0aa	-1.2566
-3.2110	t0xxS0	-1.2563
-3.5120	t0xxS0hhaak0ee	-1.3009
-3.5120	t0xxS0ii	-1.2566
-3.5120	t0xxT0k0oo	-1.3009
-3.5120	t0xxT0t0aa	-1.3009
-3.5120	t0xxllvvnnaak0ii	-1.3000
-3.5120	t0xxllvvnneeSSt0aannxxNN	-1.3009
-3.5120	t0xxllvvnneek0ee	-1.3009
-3.5120	t0xxllvvnneek0oo	-1.2990
-3.5120	t0xxllvvnneellyvnnxxNN	-1.3009
-3.5120	t0xxng	-1.3009
-3.5120	t0xxngii	-1.3009
-3.5120	t0xxngs0vvngiilloonnxxNN	-1.3009
-3.5120	thaa	-1.3009
-3.5120	thaaNN	-1.3009
-4.5120	thaak0oonnaannxxNN
-3.5120	theet0oollxxLL	-1.3009
-3.5120	theeyvNNhhii	-1.3009
-3.5120	theeyvNNs0xxllvvP0k0ee	-1.3009
-3.5120	thoong	-1.3006
-3.5120	thoonghhaaP0c0vvK0xxlloo	-1.3009
-4.5120	thoonghhaayv
-3.2110	thoonghhee	-1.3001
-3.5120	thooyoiiLLiivvSSt0aa	-1.2566
-3.2110	thuummyvnghhaaNN	-1.3008
-3.5120	thuungmmyvngs0xxllvvNN	-1.3009
-3.5120	thuus0iiNNhheeSSt0aa	-1.2566
-3.5120	thvvK0ii	-1.2998
-3.5120	thvvLLii	-1.3009
-3.5120	thvvee	-1.3009
-4.5120	thvvt0xxK0iit0aa
-3.5120	thwechiillxxLL	-1.3002
-3.5120	thwivvnnaaooLL	-1.3001
-4.5120	thxxK0k0wvNNiit0aa
-3.2110	ttaallaa	-1.3005
-3.5120	ttaallaas0vv	-1.3008
-3.5120	ttaallxxk0oo	-1.3009
-3.5120	ttaawilloo	-1.3009
-2.6669	ttee	-1.2998
-3.5120	tteeS0mmuuLLii	-1.3009
-3.5120	tteeeennxxNN	-1.3009
-3.5120	tteelloonnxxNN	-1.3009
-3.5120	tteemmaaNN	-1.3009
-2.6089	tteemmuuNNee	-1.3118
-3.0349	tteemmuuNNiit0aa	-1.7337
-3.5120	tteemmuuNNiivvSSt0aa	-1.2566
-3.5120	tteemmuuNNiiya	-1.2566
-4.5120	tteennxxNN
-3.5120	tteet0aa	-1.2566
-2.8131	ttoo	-1.3943
-3.2110	ttoohhaaNN	-1.3006
-3.5120	ttvvLLk0uuvvSSt0aa	-1.2566
-3.5120	ttvvLLvvc0iic0ii	-1.3004
-3.5120	ttvvLLvvc0iik0ii	-1.3008
-3.5120	ttvvLLvvc0iimmyvNN	-1.3009
-3.5120	ttvvnnxxNN	-1.3002
-3.5120	ttvvt0xxLLvvt0eet0vvk0uunnaa	-1.2566
-3.5120	ttwichyv	-1.3009
-3.5120	ttwichyvnnaak0aallyvk0oo	-1.3000
-3.5120	ttwivv	-1.3009
-3.5120	ttwivvnnvvMMvv	-1.3005
-3.5120	ttxivvMMttxivvMM	-1.3009
-3.5120	ttxxS0hhaaNNt0aa	-1.2566
-3.2110	ttxxS0xxLL	-1.3008
-3.5120	ttxxT0k0iik0iillxxLL	-1.3009
-3.5120	ttxxT0nnxxNN	-1.3009
-3.5120	ttxxT0vv	-1.3009
-4.5120	ttxxk0vvuuMMxxLL
-3.5120	ttxxk0vvuuNN	-1.3009
-3.5120	uuLLk0iit0oo	-1.2989
-3.5120	uuLLmmyvNN	-1.3009
-3.5120	uuLLthaalliieennxxNN	-1.3009
-3.5120	uuLLvvt0eek0oo	-1.3005
-3.5120	uuLLxxMMk0wa	-1.3004
-3.5120	uuMMc0iiK0yvSSt0aa	-1.2566
-3.5120	uuMMchxxlliik0oo	-1.3009
-3.5120	uuMMkhiiNNt0aa	-1.2566
-3.2110	uuMMkhiivvSSt0aa	-1.5577
-3.5120	uuMMkhxxMM	-1.3009
-3.2110	uuMMkhyv	-1.6017
-3.0349	uuNNt0oongee	-1.3006
-3.2110	uuNNt0oongii	-1.3005
-3.2110	uuNNt0oongxxLL	-1.2982
-2.7339	uullii	-1.3002
-3.5120	uulliieek0ee	-1.3009
-3.5120	uulliiiiNNt0ee	-1.2566
-3.5120	uulliik0aa	-1.3009
-3.5120	uulliimmaaLLk0oot0oo	-1.3009
-2.9100	uulliit0xxLLii	-1.3002
-2.9100	uulliit0xxLLxi	-1.4241
-3.2110	uulliit0xxLLxxNN	-1.3005
-3.5120	uulliixi	-1.3006
-3.5120	uut0eelloo	-1.2982
-3.5120	uuyvNNhhaak0ee	-1.3009
-3.5120	vvLLK0hhyvSSc0iimmaaNN	-1.3009
-3.5120	vvLLii	-1.3008
-3.5120	vvLLk0uuLL	-1.3008
-3.5120	vvLLk0uuLLii	-1.2997
-3.5120	vvLLk0uuLLiillaaNN	-1.3009
-3.5120	vvLLk0uuLLiillaat0oo	-1.3009
-3.0349	vvLLk0uuLLxxLL	-1.2979
-3.2110	vvLLk0uuLLxxNN	-1.3004
-3.5120	vvLLlluuK0vvLLlluuK0	-1.3009
-3.5120	vvLLllxxNN	-1.3004
-2.8131	vvLLmmaa	-1.3963
-3.5120	vvLLmmaannaa	-1.3009
-3.5120	vvLLmmaaxi	-1.3009
-3.5120	vvLLxi	-1.3009
-3.5120	vvLLxxLL	-1.3009
-4.5120	vvLLxxMMxxLL
-4.5120	vvLLxxMMxxNN
-3.5120	vvNNc0eennaa	-1.3005
-3.5120	vvNNt0vvK0iinnaa	-1.3002
-3.5120	vvNNvv	-1.3009
-3.5120	vvNNvvlloo	-1.3009
-3.2110	vvNNvvllxxLL	-1.3008
-3.0349	vvP0S0ii	-1.3006
-4.5120	vvP0S0iinnxxNN
-4.5120	vvP0S0k0ii
-3.2110	vvP0S0k0oo	-1.3002
-3.2110	vvP0S0nnxxNN	-1.3006
-3.5120	vvP0S0nnxxnnyak0oo	-1.3009
-2.5530	vvP0S0t0aa	-2.2157
-3.5120	vvP0S0t0aanniikkaa	-1.2566
-3.5120	vvP0S0vv	-1.2566
-2.6669	vvP0S0vvSSt0aa	-2.1017
-3.5120	vvP0S0vvc0iiLL	-1.3008
-3.5120	vvP0S0vvt0oo	-1.3009
-3.5120	vvP0S0xxLL	-1.2997
-4.5120	vvT0k0ee
-4.5120	vvT0k0ii
-4.5120	vvT0nnxxNN
-3.5120	vvT0vvc0iinnxxNN	-1.3005
-4.5120	vvT0xxllyvnnxxNN
-3.5120	vvc0eechvvllvvMM	-1.3009
-3.5120	vvc0eekkaac0iinnxxNN	-1.3009
-3.5120	vvc0iiLLk0oo	-1.3009
-3.5120	vvccees0vv	-1.3009
-3.5120	vvcciit0oo	-1.3009
-3.5120	vvchaaphii	-1.3009
-3.5120	vvlliiNNaaiit0xxLLeek0eet0oo	-1.3009
-3.5120	vvllyvP0t0aannxxNN	-1.2993
-4.5120	vvllyvs0vvnnxxNN
-3.5120	vvllyvuuNN	-1.3009
-3.5120	vvmmiis0ook0aa	-1.3009
-3.5120	vvmmiis0oommyvNN	-1.3009
-3.5120	vvmmiis0oonnxxNN	-1.3009
-3.5120	vvnnxx	-1.3009
-3.5120	vvs0xxLLllvvngvvs0xxLLllvvng	-1.3009
-3.5120	vvt0iiNNc0ii	-1.3006
-3.5120	vvt0iiNNk0aa	-1.3009
-4.5120	vvt0iikkaac0iinnaa
-3.5120	vvt0iillxxLL	-1.3009
-3.5120	vvt0iis0vvNNk0aa	-1.3006
-3.5120	vvt0uuuuNN	-1.3008
-3.5120	vvttvvHHk0ee	-1.3009
-2.8131	vvttvvNN	-1.2996
-4.5120	vvttvvhhaaNN
-3.5120	waSSk0ii	-1.3000
-3.0349	waSSt0aa	-1.4324
-3.5120	wangk0eemmiillxxLL	-1.3009
-3.2110	was0vv	-1.3001
-3.5120	wek0ooc0iiP0iis0ii	-1.3009
-4.5120	wennyahhaammyvNN
-3.5120	wes0uuNNxxLL	-1.3009
-3.5120	wiS0t0oolliillxxLL	-1.3009
-3.2110	wihhaaNN	-1.3008
-4.5120	wihhaayv
-2.7339	wihhee	-1.3000
-4.5120	wihhvvMMhhaaNN
-3.5120	willoo	-1.3009
-4.5120	wvLLs0eek0yeee
-4.5120	wvLLs0eek0yeees0vv
-4.5120	wvLLs0eek0yeees0vvxi
-4.5120	wvNNs0iic0vvK0iiNN
-3.5120	wvNNt0uummaaK0	-1.3009
-3.5120	wvNNt0uummaaK0ii	-1.3008
-3.5120	xic0iillxxLL	-1.3008
-3.5120	xic0vvngp0uuee	-1.3009
-4.5120	xihhaayv
-3.2110	xihhee	-1.3006
-3.5120	xihhees0vv	-1.3008
-3.5120	ximmiiees0vv	-1.3006
-4.5120	ximmiihhaaNNt0aa
-3.5120	xis0iiMMt0oo	-1.3006
-3.5120	xxllee	-1.2986
-3.5120	yaK0c0eemmaaNN	-1.3008
-3.5120	yaK0k0aaNN	-1.3009
-3.5120	yaK0s0ooK0iinnaa	-1.2982
-3.5120	yahhaaK0xxLL	-1.3009
-3.5120	yang	-1.3009
-3.5120	yangc0iiccooK0ee	-1.3009
-4.5120	yangii
-3.5120	yangs0aangxxLL	-1.3009
-3.5120	yap0iihhaaNN	-1.3009
-3.2110	yat0aaNNiit0aa	-1.5577
-3.2110	ye	-1.2565
-3.5120	yeS0nnaaLL	-1.3006
-3.5120	yeS0nnaaLLeennxxNN	-1.3009
-3.5120	yeS0nnaaLLp0uuthvv	-1.3009
-4.5120	yec0iik0aa
-4.5120	yec0iinnxxNN
-4.5120	yec0iiyo
-3.5120	yec0vvNNeennxxNN	-1.3009
-3.5120	yeppxxNN	-1.3009
-3.5120	yeppxxk0ee	-1.3009
-3.5120	yes0uuLLxi	-1.3009
-3.5120	yoK0c0iik0vvlliillxxLL	-1.3000
-3.5120	yohheeng	-1.3008
-3.5120	yollvvHHk0ee	-1.3009
-4.5120	yongiihhaaNN
-3.5120	yos0aaii	-1.3008
-4.5120	yuK0cheec0vvK0
-3.5120	yuK0iioo	-1.3009
-3.5120	yuNN	-1.3009
-3.5120	yunnaaNNhhii	-1.3008
-3.5120	yunnaaNNhhiit0oo	-1.3008
-3.5120	yut0ooK0	-1.3009
-3.5120	yvK0s0aac0vvK0iiNN	-1.3009
-3.5120	yvK0s0aawa	-1.3009
-3.5120	yvK0s0aaxi	-1.3009
-3.5120	yvLL	-1.3008
-3.5120	yvLLc0uunghheeSSt0aa	-1.2566
-3.5120	yvLLs0iiMMhhii	-1.3008
-4.5120	yvLLxxLL
-3.5120	yvNNk0iik0aa	-1.3009
-3.2110	yvNNk0iillxxLL	-1.6017
-4.5120	yvNNk0uuhhaak0oo
-4.5120	yvNNk0uuwa
-3.5120	yvNNk0waNNs0vvngii	-1.3008
-3.5120	yvNNk0yvLLt0wet0oollooK0	-1.2984
-4.5120	yvNNmmaahhaak0oo
-3.5120	yvPH	-1.3009
-3.5120	yvS0p0ooLL	-1.2992
-3.5120	yvS0p0ook0oo	-1.3009
-3.5120	yvhhaaK0s0eeng	-1.3009
-3.5120	yvk0iic0vvk0ii	-1.3009
-3.5120	yvk0iiees0vv	-1.2997
-3.5120	yvk0iikkaac0iinnxxNN	-1.3006
-3.5120	yvk0iis0vv	-1.3004
-3.0349	yvllvv	-1.3006
-3.5120	yvllxxMMxxNN	-1.3009
-3.5120	yvng	-1.3009
-3.5120	yvnghhooNNxi	-1.3009
-3.5120	yvnghhwat0oo	-1.3008
-3.5120	yvngk0aaMMii	-1.2989
-3.5120	yvngk0aaMMiillaak0oo	-1.3009
-3.2110	yvngk0aaMMxxNN	-1.3008
-3.5120	yvngwvNNhhaaNN	-1.3009
-3.2110	yvs0iiLLhhaak0ee	-1.3008
-3.5120	yvs0vvngt0xxLLt0oo	-1.3008
-3.5120	yvs0vvngxxNN	-1.3006
-4.5120	yvthaaxi
-3.5120	yvthee	-1.3009
-1.0123	!EXIT

\2-grams:
-2.2097	!ENTER aaiit0xxLLxxNN
-2.5220	!ENTER aakhaas0iiaakkooCHii
-2.5220	!ENTER aallxxMMt0aauuMMii
-2.5220	!ENTER aallxxMMt0aauuMMiillaaNN
-2.5220	!ENTER aallxxMMt0aauuNN
-2.5220	!ENTER aammuuthxxNN
-2.5220	!ENTER aanniiLL
-2.5220	!ENTER aanniik0oo
-2.5220	!ENTER c0aaNNt0iiee
-2.5220	!ENTER c0aaNNt0iik0aa
-2.5220	!ENTER c0aak0iit0oo
-2.5220	!ENTER c0iiNNt0aaLLlleek0aa
-2.2097	!ENTER c0iiP0ee
-2.5220	!ENTER c0iik0xxMMkkaac0ii
-2.4785	!ENTER c0iik0xxMMxxNN
-2.2097	!ENTER c0ooMM
-2.5220	!ENTER c0ooyaK0t0ooLLii
-2.5220	!ENTER c0uummvvnnii
-2.5220	!ENTER c0vv
-2.2097	!ENTER c0vvC0mmvvK0ii
-2.5220	!ENTER c0vvMMc0vvMM
-2.5220	!ENTER c0vvNNee
-2.5220	!ENTER c0vvllvvt0aak0aannxxNN
-2.5220	!ENTER c0xxK0
-2.5220	!ENTER cciiP0cciiLLhhaaNN
-2.5220	!ENTER chaa
-2.5220	!ENTER chaaMMxxlloo
-2.5220	!ENTER chaallxxLL
-2.5220	!ENTER cheeyvngs0iiNNk0wa
-2.5220	!ENTER choop0vvLL
-2.5220	!ENTER chvvxxMMeennxxNN
-2.5220	!ENTER hhaaNN
-2.5220	!ENTER hhaaNNchaaMM
-2.5220	!ENTER hhaayaNN
-2.5220	!ENTER hheek0aa
-2.5220	!ENTER hhyvNNs0iiLLee
-2.5220	!ENTER hhyvNNs0iiLLxi
-2.5220	!ENTER hhyvNNt0eeiiNNt0xxLLxxNN
-1.5019	!ENTER ii
-2.5220	!ENTER iiLLc0ee
-2.5220	!ENTER iiLLc0vvNNee
-2.5220	!ENTER iiLLs0aangc0vvK0iiNN
-2.5220	!ENTER iiNNc0ee
-2.5220	!ENTER iic0ee
-2.5220	!ENTER iichvvllvvMM
-2.5220	!ENTER iik0vvS0xxLL
-2.5220	!ENTER iillees0vv
-2.5220	!ENTER iillvvHHk0ee
-2.5220	!ENTER iillvvLL
-2.0299	!ENTER iillvvNN
-2.2097	!ENTER iillvvhhaaNN
-2.5220	!ENTER iillxxMMt0oo
-2.5220	!ENTER iinnxxNN
-2.5220	!ENTER iip0vvMMs0vvNNxi
-2.5220	!ENTER iip0vvNNeennxxNN
-2.5220	!ENTER iiwa
-2.5220	!ENTER iiyunnxxNN
-2.5220	!ENTER k0aaLLlliiMMk0iiLLee
-2.5220	!ENTER k0aaLLp0aaTH
-2.5220	!ENTER k0aaMMchuunnxxNN
-2.5220	!ENTER k0aaP0S0c0iiNN
-2.5220	!ENTER k0aaP0S0xxLL
-2.5220	!ENTER k0aaP0c0aak0ii
-2.5220	!ENTER k0aaP0k0aaP0hhaak0oo
-2.5220	!ENTER k0eeuuLLk0aaee
-2.5220	!ENTER k0iichaat0oo
-2.5220	!ENTER k0ooc0aangxi
-2.5220	!ENTER k0ooc0vvNN
-2.5220	!ENTER k0ook0ii
-2.5220	!ENTER k0ooppiillxxLL
-2.5220	!ENTER k0uuc0xxng
-2.5220	!ENTER k0vvMMk0ee
-2.5220	!ENTER k0vvTHchiilleeeemmaaNN
-1.8051	!ENTER k0xx
-2.5220	!ENTER k0xxLLssee
-1.9031	!ENTER k0xxk0vvNN
-2.5220	!ENTER k0xxk0vvS0ii
-2.5220	!ENTER k0xxllees0vv
-2.5220	!ENTER k0xxlleet0oo
-1.5479	!ENTER k0xxlliik0oo
-2.5220	!ENTER k0xxlliik0oonnxxNN
-2.5220	!ENTER k0xxllvvHHk0ee
-2.0299	!ENTER k0xxllvvHHk0ii
-2.5220	!ENTER k0xxllvvMM
-2.5220	!ENTER k0xxllvvNNk0aa
-1.6577	!ENTER k0xxllvvNNt0ee
-2.2097	!ENTER k0xxllvvNNt0eet0oo
-2.5220	!ENTER k0xxllvvhhaaNN
-2.5220	!ENTER k0xxllvvhhaak0ii
-2.5220	!ENTER k0xxllvvk0oot0oo
-1.5019	!ENTER k0xxllvvnnaa
-2.2097	!ENTER k0xxllvvnniikkaa
-2.0299	!ENTER k0xxllvvt0aak0aa
-2.5220	!ENTER k0xxnnxxNN
-2.5220	!ENTER k0xxt0eelloo
-2.0299	!ENTER k0xxt0xxLLxxNN
-2.5220	!ENTER k0yvuunnee
-2.5220	!ENTER khoophiiyvSSt0aa
-2.5220	!ENTER kkooCHk0aac0iillxxLL
-2.5220	!ENTER kkwe
-2.5220	!ENTER llaat0iioot0oo
-2.5220	!ENTER mmaaLLK0k0oo
-2.5220	!ENTER mmaaLLssiinnxxNN
-2.5220	!ENTER mmaaLLxxLL
-2.5220	!ENTER mmaaNNHHxxNN
-2.5220	!ENTER mmaaxxLL
-2.5220	!ENTER mmeeS0s0eec0iiP0xxLL
-2.5220	!ENTER mmeemmiiLLp0aaTHiit0aa
-2.5220	!ENTER mmiik0aaNNii
-2.5220	!ENTER mmooMMxxLL
-2.5220	!ENTER mmooS0t0xxLLxxNN
-2.5220	!ENTER mmoollxxnnxxNN
-2.5220	!ENTER mmuuLLk0iik0aa
-2.5220	!ENTER mmuuLLk0vvNNiillaaNN
-2.5220	!ENTER mmuuLLllooNN
-2.5220	!ENTER mmuuNNhhaaK0ee
-2.5220	!ENTER mmuuNNhhaaK0ees0vvnnxxNN
-2.5220	!ENTER mmuuNNhhaaK0xi
-2.5220	!ENTER mmuuNNhhaaK0xxNN
-2.5220	!ENTER mmuuNNt0xxK0
-2.5220	!ENTER mmvvNN
-2.5220	!ENTER mmyvCH
-2.5220	!ENTER mmyvK0mmaaNN
-2.5220	!ENTER nnaaMMii
-2.0448	!ENTER nnaannxxNN
-2.2097	!ENTER nnaat0oo
-1.9031	!ENTER nneek0aa
-2.5220	!ENTER nnooiiNNee
-2.5220	!ENTER nnooiiNNxxNNt0aallxxNN
-2.5220	!ENTER nnuuNNxxlloo
-2.5220	!ENTER nnuuiiya
-2.5220	!ENTER nnvv
-2.5220	!ENTER nnvvk0uulliik0aa
-2.5220	!ENTER nnvvk0uulliinnxxNN
-2.5220	!ENTER nnvvxi
-2.5220	!ENTER p0aaKKees0vv
-2.5220	!ENTER p0aaLLt0ooT0uuMMxxLL
-2.5220	!ENTER p0aallaaMM
-2.5220	!ENTER p0aangmmaangiillxxLL
-2.5220	!ENTER p0aat0oongk0vvllyvt0oo
-2.5220	!ENTER p0iit0aaNNc0ook0ee
-2.5220	!ENTER p0ooMMiimmyvNN
-2.5220	!ENTER p0oolliillxxLL
-2.5220	!ENTER p0uuLLchiiNNc0vvLLhhaak0oo
-2.5220	!ENTER p0uuLLthaaNN
-2.5220	!ENTER p0uuNNhhoong
-2.5220	!ENTER p0vvLL
-2.2097	!ENTER p0vvLLssvv
-2.5220	!ENTER ppaaLLlleeees0vv
-2.5220	!ENTER s0aaLLMMxi
-2.5220	!ENTER s0aallaaMMmmaat0aa
-2.5220	!ENTER s0aangllooK0s0uuee
-2.5220	!ENTER s0aas0iiLL
-2.5220	!ENTER s0eekkii
-2.5220	!ENTER s0eengk0aaK0hhaaLLs0uullooK0
-2.5220	!ENTER s0iiLLHHvvSSt0aa
-2.5220	!ENTER s0iiLLkhvvS0
-2.5220	!ENTER s0iiMMhhuuNNxi
-2.5220	!ENTER s0iiNNyongiit0aa
-2.5220	!ENTER s0iiees0vvnnxxNN
-2.5220	!ENTER s0oo
-2.5220	!ENTER s0ooK0nnuuNNssvvP0xi
-2.5220	!ENTER s0ooNNnniiMM
-2.5220	!ENTER s0oongaac0iik0aa
-2.5220	!ENTER s0oonnxxNN
-2.5220	!ENTER s0oonnyv
-1.5479	!ENTER s0oonnyvNNxxNN
-2.0299	!ENTER s0oonnyvk0aa
-2.5220	!ENTER s0oonnyvllaannxxNN
-2.2097	!ENTER s0oonnyvnnxxNN
-2.0299	!ENTER s0oonnyvxi
-2.5220	!ENTER s0oos0vvLLees0vvnnxxNN
-2.2097	!ENTER s0oos0vvLLxxLL
-2.5220	!ENTER s0uuMMvvs0vv
-2.5220	!ENTER s0uuNNs0uuhhaaNN
-2.5220	!ENTER s0uuPH
-2.5220	!ENTER s0vvlloo
-2.5220	!ENTER s0vvngthvv
-2.5220	!ENTER s0vvuuLL
-2.5220	!ENTER s0vvuuLLs0vvnnxxNN
-2.5220	!ENTER s0xxLLk0iillooP0t0aannxxNN
-2.5220	!ENTER s0xxLLk0iilloouuMMxxNN
-2.5220	!ENTER ssiillxxMMeet0oo
-2.5220	!ENTER t0aa
-2.5220	!ENTER t0aaNNp0aaLLmmvvlliillxxLL
-2.5220	!ENTER t0aahheengiivvSSt0aa
-2.2097	!ENTER t0aaxxMM
-2.5220	!ENTER t0eet0aaNNhhii
-2.5220	!ENTER t0iit0iiMMt0ooLLxxLL
-2.5220	!ENTER t0ooK0c0aannxxNN
-2.5220	!ENTER t0oongt0eemmuuNN
-2.5220	!ENTER t0uuK0
-2.5220	!ENTER t0uuLLlleeeennxxNN
-2.5220	!ENTER t0uuk0oo
-2.0299	!ENTER t0vv
-2.5220	!ENTER t0wieennxxNN
-2.5220	!ENTER t0xxng
-2.5220	!ENTER thooyoiiLLiivvSSt0aa
-2.5220	!ENTER thuummyvnghhaaNN
-2.5220	!ENTER ttaallaas0vv
-1.9031	!ENTER ttoo
-2.2097	!ENTER uullii
-2.5220	!ENTER uulliimmaaLLk0oot0oo
-2.2097	!ENTER uulliit0xxLLii
-2.2097	!ENTER uulliit0xxLLxxNN
-2.5220	!ENTER vvLLk0uuLLiillaaNN
-2.5220	!ENTER vvLLk0uuLLiillaat0oo
-2.5220	!ENTER vvLLllxxNN
-2.2097	!ENTER vvLLmmaa
-2.5220	!ENTER vvP0S0t0aa
-2.5220	!ENTER vvP0S0vvt0oo
-2.5220	!ENTER vvc0eechvvllvvMM
-2.5220	!ENTER vvt0iis0vvNNk0aa
-2.0299	!ENTER vvttvvNN
-2.5220	!ENTER wiS0t0oolliillxxLL
-2.5220	!ENTER wvNNt0uummaaK0
-2.5220	!ENTER yaK0c0eemmaaNN
-2.2097	!ENTER ye
-2.5220	!ENTER yeS0nnaaLL
-2.5220	!ENTER yeS0nnaaLLeennxxNN
-2.5220	!ENTER yeS0nnaaLLp0uuthvv
-2.5220	!ENTER yec0vvNNeennxxNN
-2.5220	!ENTER yoK0c0iik0vvlliillxxLL
-2.5220	!ENTER yohheeng
-2.5220	!ENTER yunnaaNNhhii
-2.5220	!ENTER yvk0iiees0vv
-2.5220	!ENTER yvk0iikkaac0iinnxxNN
-2.5220	!ENTER yvk0iis0vv
-0.3233	aaLL s0uu
-0.3233	aaLL s0uuk0aa
-0.0223	aaLLaap0ooLL s0uu
-0.0223	aaLLllyvc0yv iiSSt0aa
-0.0223	aaLLmmaaC0xxNN k0vvS0xxNN
-0.7212	aaNN p0uullxxmmyvNN
-0.7212	aaNN phaaLLk0eeSSs0oohhaannxxNN
-0.7212	aaNN t0weLL
-0.7212	aaNN t0weNNt0aa
-0.7212	aaNN t0wes0vv
-0.8674	aaNNC0aa iiSSnnxxNN
-0.5551	aaNNC0aa mmuuLLc0aangnnaaNNxxLL
-0.8674	aaNNC0aa p0ooaaSSt0aa
-0.8674	aaNNC0aa p0vvllyvSSt0aa
-0.8674	aaNNC0aa p0yvTHxxLL
-0.8674	aaNNC0aa s0ees0uullxxLL
-0.3233	aaNNC0aas0vv hhaak0oo
-0.3233	aaNNC0aas0vv p0aangmmaangiillxxLL
-0.0055	aaNNHHaaSSt0aa !EXIT
-0.3233	aaNNHHk0ee aaLLaap0ooLL
-0.3233	aaNNHHk0ee t0wek0iikkaac0ii
-0.3233	aaNNHHk0oo mmaak0uu
-0.3233	aaNNHHk0oo s0ooNNee
-0.3233	aaNNHHnnxxNN nnaaLLii
-0.3233	aaNNHHnnxxNN s0ooNNii
-0.0044	aaNNHHnnxxNNt0aa !EXIT
-0.0223	aaNNHHnnxxNNt0ee aahhooP0
-0.0223	aaNNHHnnxxnnya !EXIT
-0.0223	aaNNHHt0vvNN s0oonnyvk0aa
-0.3233	aaNNHHxxNN c0iiMMs0xxngii
-0.3233	aaNNHHxxNN k0ooS0ee
-0.0223	aaNNHHxxNNk0aa !EXIT
-0.3233	aaNNHHxxmmyvNN mmeeee
-0.3233	aaNNHHxxmmyvNN vvmmiis0oonnxxNN
-0.0223	aaNNHHxxmmyvNNs0vvt0oo mmaachii
-0.3233	aaNNee c0iinniiNN
-0.3233	aaNNee iimmii
-0.3233	aaNNees0vv p0aaKKxxlloo
-0.3233	aaNNees0vv p0vvNNc0yv
-0.0223	aaNNk0eek0aa c0iiTHk0oo
-0.0223	aaNNk0iik0iimmaaNN hhaammyvNN
-0.3233	aaNNk0oo iiSSvvSSt0aa
-0.3233	aaNNk0oo vvLLk0uuLLxxLL
-0.3233	aaP0chuuK0t0wek0oo c0eek0uus0vvngt0weNN
-0.3233	aaP0chuuK0t0wek0oo mmiic0vvK0iiNN
-0.0223	aaP0chuuK0t0wevv iiSSnnxxNN
-0.0223	aaPH nnxxthiinnaammuu
-0.0223	aaPHees0vv hhaaNN
-0.3233	aaPHs0eeuuk0oo mmaaxxLLlloo
-0.3233	aaPHs0eeuuk0oo p0aaMMp0aaTHk0ooLLlloo
-0.0223	aac0iiK0t0oo p0aallaaMMkkxxTHii
-0.0223	aac0iillaangiinnxxNN ooNNthoong
-0.0223	aac0uu p0ooc0ii
-0.0223	aacciiLLhheeSSt0aa !EXIT
-0.3233	aahhooP0 p0vvNN
-0.3233	aahhooP0 p0vvNNssiiK0iinnaa
-0.0223	aaiit0xxLLeek0ee aac0iiK0t0oo
-0.3233	aaiit0xxLLii mmvvNNc0vv
-0.3233	aaiit0xxLLii yvng
-0.0223	aaiit0xxLLk0wa hhaaMMkkee
-0.0223	aaiit0xxLLxi nnooLLiithvvlloo
-1.0223	aaiit0xxLLxxNN c0eek0aaK0k0ii
-1.0223	aaiit0xxLLxxNN k0aangees0vv
-1.0223	aaiit0xxLLxxNN mmaallxxNN
-1.0223	aaiit0xxLLxxNN pheellxxLL
-0.7100	aaiit0xxLLxxNN s0oollxxLL
-1.0223	aaiit0xxLLxxNN t0xxLLlloo
-1.0223	aaiit0xxLLxxNN t0xxLLp0uuLLnnooLLiillaak0oo
-1.0223	aaiit0xxLLxxNN t0xxLLp0uuLLnnooLLiillxxLL
-1.0223	aaiit0xxLLxxNN yaK0s0ooK0iinnaa
-0.0223	aakhaas0iiaakkooCHii c0iik0oo
-0.0223	aakkaap0uuthvv t0aa
-0.0223	aakkaawvs0vvyvSSt0aa !EXIT
-0.0223	aallaangk0ooS0hhaac0ii aaNNHHk0oo
-0.0223	aallee p0iiCHnnaannxxNN
-0.0223	aalleephyvNNxxlloo hhaaNN
-0.4994	aallxxMMt0aaP0k0ee p0ooiillyvk0oo
-0.4994	aallxxMMt0aaP0k0ee s0ooNNc0iiLLhhaaNN
-0.4994	aallxxMMt0aaP0k0ee vvLLxxLL
-0.3233	aallxxMMt0aaP0k0oo chuuhhaaNN
-0.3233	aallxxMMt0aaP0k0oo s0xxLLk0iilloouuNN
-0.0223	aallxxMMt0aaP0k0vvnnaa s0xxLLphxxNN
-0.0223	aallxxMMt0aaP0t0aannxxNN k0vvS0xxNN
-0.0223	aallxxMMt0aauuMMii yvngwvNNhhaaNN
-0.0223	aallxxMMt0aauuMMiillaaNN mmwvLLkkaa
-0.0223	aallxxMMt0aauuMMmmaaNNxxLL p0oollyvnnxxNN
-0.7212	aallxxMMt0aauuMMxxNN aaNNees0vv
-0.7212	aallxxMMt0aauuMMxxNN hhaannaaxi
-0.7212	aallxxMMt0aauuMMxxNN mmuuLLllooNN
-0.7212	aallxxMMt0aauuMMxxNN nnuuk0uueek0ee
-0.7212	aallxxMMt0aauuMMxxNN ttoohhaaNN
-0.0223	aallxxMMt0aauuMMxxlloo iiNNhhees0vv
-0.7212	aallxxMMt0aauuNN hheengwillxxLL
-0.7212	aallxxMMt0aauuNN mmaaLLmmaaNN
-0.7212	aallxxMMt0aauuNN s0oonnyviik0iillxxLL
-0.7212	aallxxMMt0aauuNN s0oonnyvt0xxLLxi
-0.7212	aallxxMMt0aauuNN vvLLk0uuLLxxNN
-0.0223	aammuuthxxNN nnxxLLK0xxNN
-0.0223	aanneennxxNN yeppxxk0ee
-0.0223	aanneexi s0vvLLmmyvngxxLL
-0.0223	aanniiLL k0vvya
-0.4994	aanniiNN k0aaLLkkooCHii
-0.4994	aanniiNN nnuuk0aa
-0.4994	aanniiNN phvvngphvvc0iiMMhhaaNN
-0.0223	aanniihheet0oo c0ooHHxxnnii
-0.6243	aanniik0oo c0aak0ii
-0.6243	aanniik0oo mmaaLLk0oo
-0.6243	aanniik0oo s0xxs0xxllooxi
-0.6243	aanniik0oo t0xxLLt0oo
-0.0223	aanniik0vvt0xxNN !EXIT
-0.7212	aanniillaa aallxxMMt0aaP0k0oo
-0.7212	aanniillaa nnee
-0.7212	aanniillaa oollooc0ii
-0.7212	aanniillaa t0uuK0ee
-0.7212	aanniillaa uulliixi
-0.0223	aanniillaaNN mmaaLLiit0aa
-0.0223	aanniimmyvNN k0uuLL
-0.0223	aanniinnii !EXIT
-0.0110	aanniit0aa !EXIT
-0.0223	aanniiya !EXIT
-0.0223	aannxxNNc0ii mmoollxxnnxxNNc0ii
-0.0223	c0aaK0k0aat0xxLLee xihhee
-0.0223	c0aaK0k0aat0xxLLxi s0iik0aaK0xxNN
-0.0223	c0aaK0k0aat0xxLLxxNN s0aaLLMMxi
-0.0223	c0aaK0k0aaxi s0iik0aaK0ee
-0.0223	c0aaK0phuuMMiit0aa !EXIT
-0.9254	c0aaLL chiiiik0oo
-0.9254	c0aaLL hhaannxxNN
-0.9254	c0aaLL k0aakkuuNN
-0.9254	c0aaLL nnaathaannaa
-0.9254	c0aaLL nnooK0yvs0vv
-0.9254	c0aaLL p0aat0oongk0vvllyvSSt0aa
-0.9254	c0aaLL p0ooiic0ii
-0.9254	c0aaLL t0xxLLvvSSt0aa
-0.0223	c0aaMMc0aakhoo yvLLs0iiMMhhii
-0.0223	c0aaMMk0xxk0oo mmuuLLc0aangnnaaNNxxLL
-0.0223	c0aaNNt0ii vvNNt0vvK0iinnaa
-0.0223	c0aaNNt0iiee p0eellxxLL
-0.3233	c0aaNNt0iik0aa k0oouuNN
-0.3233	c0aaNNt0iik0aa s0eelloo
-0.0223	c0aaNNt0iillxxLL k0ooP0k0ee
-0.0223	c0aaNNt0iip0aaTHee p0eellxxLL
-0.0223	c0aaP0aat0aak0aa s0ooNNp0aat0aaK0ee
-0.0223	c0aaP0c0aannxxNN k0vvS0iivvSSt0aa
-0.0223	c0aaP0choowa kkooCHii
-0.0223	c0aaP0hhiiLL k0vvS0
-0.0223	c0aaP0k0oo iiSSvvSSt0aa
-0.0223	c0aaP0mmooK0k0wa k0aas0ii
-0.3120	c0aak0ii aaNNee
-0.6243	c0aak0ii p0iiCHxxLL
-0.6243	c0aak0ii p0ooNNwit0aa
-0.0223	c0aak0iit0oo mmoollxxk0ee
-0.0223	c0aak0iixi c0aayus0xxllvvNN
-0.0223	c0aak0oo iiSSnnxxNNc0iit0oo
-0.0223	c0aakkuu mmuuLLmmaaNN
-0.3233	c0aakkuummaaNN t0vv
-0.3233	c0aakkuummaaNN t0wittaallaaoonnxxNN
-0.0223	c0aalliic0aaP0nnxxNN k0vvS0iivvSSt0aa
-0.0223	c0aalliieennxxNN yvhhaaK0s0eeng
-0.0223	c0aalliillxxLL c0aaP0k0oo
-0.0223	c0aangchiillxxLL iiyonghhaaNNt0aa
-0.0223	c0aangk0iiphaaNNt0oo p0vvLLyvSSt0aa
-0.0223	c0aangllxx c0uungees0vv
-0.0223	c0aangs0aak0aa t0weLL
-0.0223	c0aangs0aallxxLL hhee
-0.0223	c0aas0eehhii s0aaLLphyvp0ook0iilloo
-0.0223	c0aas0iiNNiiLL k0vvt0aa
-0.0223	c0aayus0xxllvvNN mmaaxxMMees0vv
-0.0223	c0aayvNNk0wa iiNNs0eengxi
-0.0223	c0aayvNNs0xxllvvP0k0ee yvNNk0yvLLt0wet0oollooK0
-0.0223	c0ee s0eekkiillxxLL
-0.0223	c0eechaangc0oot0weNN s0eek0yellaa
-0.0223	c0eechooK0hhaaNNt0aak0oo p0aaP0ii
-0.0223	c0eechooK0xxLL hhaammyvNN
-0.0223	c0eek0aaK0k0ii s0oollxxLL
-0.0223	c0eek0uus0vvngt0weNN hhyvNNs0iiLLiit0aa
-0.0223	c0eek0wac0vvMMeellxxLL t0xxLLllxxNN
-0.0223	c0eemmiiiiSSnnxxNN yang
-0.0223	c0eemmvvS0t0eelloo phuuLLxxLL
-0.0223	c0ees0iihhaak0ooc0aa hhaaNN
-0.0223	c0eet0eelloo mmaaNNt0xxLLvvyac0ii
-0.0223	c0ii vvLLmmaa
-0.0223	c0iiK0c0vvP0 t0oowa
-0.0223	c0iiK0hhuuee p0aaLLphyot0weNN
-0.0223	c0iiLL c0ooHHxxNN
-0.0223	c0iiLLllvv t0ooLLaaoonnxxNN
-0.0223	c0iiLLs0eeK0iivvSSt0aa !EXIT
-0.0223	c0iiMMs0xxngii iiSSxxLLkkaammaannxxNN
-0.0223	c0iiMMs0xxngt0oo vvP0S0xxLL
-0.0223	c0iiNN t0uungk0xxLLk0oo
-0.3233	c0iiNNt0aaLLlleek0aa c0iichvvNNxxlloo
-0.3233	c0iiNNt0aaLLlleek0aa phiik0oo
-0.0223	c0iiP0c0uungxxLL thoonghhee
-0.3233	c0iiP0ee iiSSnnxxNN
-0.3233	c0iiP0ee was0vv
-0.0223	c0iiP0ees0vv k0xxt0aac0ii
-0.3233	c0iiP0vv c0uummvvnniiee
-0.3233	c0iiP0vv nneeNNt0aa
-0.0223	c0iiS0ii t0aaLLllaas0vv
-0.0223	c0iiTHk0oo s0aaNNp0aaLLchii
-0.3233	c0iic0vvk0wik0oo p0aaMM
-0.3233	c0iic0vvk0wik0oo p0iiCHnnaannxxNN
-0.0223	c0iichiiNN aaiit0xxLLeek0ee
-0.0223	c0iichiik0oo mmaaLLthaak0iit0oo
-0.0223	c0iichvvNNxxlloo phiik0oo
-0.0223	c0iichyv p0vvllyv
-0.0223	c0iihhyangc0vvMMxxLL thoonghhaaP0c0vvK0xxlloo
-0.0223	c0iik0oo p0aaMMkkooCHii
-0.3233	c0iik0xxMMkkaac0ii aallxxMMt0aauuNN
-0.3233	c0iik0xxMMkkaac0ii k0iit0aalliik0oo
-0.0202	c0iik0xxMMxxNN k0xxllvvNN
-0.0223	c0iik0yvP0t0oollooK0 uuLLvvt0eek0oo
-0.0223	c0iik0yvngiit0aa !EXIT
-0.0223	c0iilluuhhaak0oo iiNNc0eennxxNN
-0.1871	c0iingk0vvMMt0aallii hhaaNNk0aauuNNt0ee
-0.4994	c0iingk0vvMMt0aallii hhaaNNk0aauuNNt0eeee
-0.4994	c0iingk0vvMMt0aalliillxxLL k0vvNNnnvvk0ii
-0.4994	c0iingk0vvMMt0aalliillxxLL oonnxxLLxxNN
-0.4994	c0iingk0vvMMt0aalliillxxLL ttwivv
-0.0110	c0iinnaaSSt0aak0oo s0eengk0aaK0t0weSSt0aa
-0.0223	c0iinnaac0ii aaNNHHnnxxNNt0aa
-0.3233	c0iinnaak0aannxxNN s0aallaaMMii
-0.3233	c0iinnaak0aannxxNN t0xxS0
-0.0223	c0iinniiNN p0iiCHii
-0.0223	c0iip0uung mmiiTHxi
-0.0223	c0iiphyvSSt0aa !EXIT
-0.0223	c0iis0iiK0 chvvngnnyvNNt0xxLLii
-0.0223	c0iiwvc0iik0oo mmaanniikkaa
-0.0248	c0iixxNN k0vvS0
-0.0223	c0ooHHaahheeSSk0oo s0oo
-0.0223	c0ooHHaahheeSSt0aa !EXIT
-0.0223	c0ooHHk0eeSSt0aa !EXIT
-0.0223	c0ooHHt0aannxxNN k0vvS0iit0aa
-0.0223	c0ooHHt0aannxxNNt0ee mmuuvvLL
-0.0223	c0ooHHxxNN p0uulleellxxLL
-0.0223	c0ooHHxxnnii k0xxmmaaNN
-0.0223	c0ooLLmmyvNNs0vv chvvNNchvvNNhhii
-0.6243	c0ooMM mmvvK0vvSSvvSSt0aa
-0.6243	c0ooMM nnuuk0xxllvvc0iiNN
-0.6243	c0ooMM nnxxC0k0ee
-0.6243	c0ooMM ssaak0ee
-0.3233	c0ooMMchvvllvvMM mmaaNNnnaak0iik0aa
-0.3233	c0ooMMchvvllvvMM ttvvLLvvc0iic0ii
-0.0223	c0ooMMt0vv nnxxC0k0ee
-0.3233	c0ooNNc0eek0aa aanniillaaNN
-0.3233	c0ooNNc0eek0aa t0wevv
-0.0223	c0ooNNc0eennxxNN c0vvLLt0eec0vvK0iiNN
-0.0223	c0oohhaaP0 uuNNt0oongxxLL
-0.0223	c0ook0eec0ii !EXIT
-0.0223	c0ook0xxMMxxNN t0vvLLhheec0iiNN
-0.0223	c0oommuulleek0iit0xxLLeek0ee k0xxllii
-0.0223	c0oongllooee iiSSnnxxNN
-0.0223	c0oos0iiMMs0xxllvvP0k0ee k0vvNNnnvvNNt0aa
-0.0223	c0ooyaK0t0ooLLii nnaaLLaawaSSt0aa
-0.0223	c0ooyaK0t0ooLLiivvSSt0aa !EXIT
-0.4994	c0ooyaK0t0ooLLxxLL c0iiP0vv
-0.4994	c0ooyaK0t0ooLLxxLL c0uummuullxxnnxxNN
-0.4994	c0ooyaK0t0ooLLxxLL nneellyvt0aap0ooaaSSt0aa
-0.0223	c0ooyonghhaak0iimmaaNN hheeSSt0aa
-0.0223	c0uuK0k0iiee t0eellxxLL
-0.3233	c0uuK0k0iinnxxNN t0ee
-0.3233	c0uuK0k0iinnxxNN t0eeccooK0ii
-0.0223	c0uuK0xxLL uulliiiiNNt0ee
-0.6243	c0uuLL mmoollxxt0aaNN
-0.6243	c0uuLL nneek0aa
-0.6243	c0uuLL s0aallaaMMt0oo
-0.6243	c0uuLL s0uu
-0.0223	c0uuMMxxlloossvv s0aallaangk0wa
-0.0223	c0uuNNt0aa !EXIT
-0.0223	c0uuNNt0aannxxNN k0vvya
-0.0110	c0uuc0ii aaNNHHxxmmyvNN
-0.0223	c0uuiiNNee t0ooLLllee
-0.0223	c0uuk0iillxxLL p0aallaaNNt0aa
-0.3233	c0uuk0iit0oo hhaaNNt0aa
-0.3233	c0uuk0iit0oo hheeSSt0aa
-0.0223	c0uuk0oo p0aaT0nnxxNN
-0.0223	c0uuk0oop0aaT0nnxxNN iiyak0iillxxLL
-0.0223	c0uulloo p0aallaaMMc0iiK0hhaaNN
-0.0223	c0uummuullxxnnxxNN p0vvllxxS0ii
-0.0223	c0uummvvnnii s0ooK0
-0.0223	c0uummvvnniiee nnvvHHvvSSt0aa
-0.0223	c0uungees0vv hhyvNNs0iiLLk0waxi
-0.0223	c0uunghhaaK0s0eengxxlloo p0ooiinnxxNN
-0.0223	c0uungs0iiMMxxlloo mmuuNNhhaaK0k0wa
-0.0223	c0uungs0iihhaannxxNN k0yvnghhyangxxNN
-0.3233	c0uunnxxNN nnoollyvK0
-0.3233	c0uunnxxNN t0ees0vv
-0.0223	c0uuvvSSt0aa !EXIT
-0.0223	c0uuwillxxLL aallaangk0ooS0hhaac0ii
-0.3233	c0vv ccooK0
-0.3233	c0vv s0aaNN
-0.3233	c0vvC0mmvvK0ii s0eekkiis0oonnxxNN
-0.3233	c0vvC0mmvvK0ii s0oongaac0iillxxLL
-0.0223	c0vvC0mmvvK0iillxxLL t0aaLLk0oo
-0.0223	c0vvLLMMxxNNiit0xxLLxi mmooMMp0uulliiMMee
-0.0223	c0vvLLt0eec0vvK0iiNN k0vvS0iit0aa
-0.3233	c0vvMMc0vvMM chaa
-0.3233	c0vvMMc0vvMM k0vvchiiLLk0oo
-0.0223	c0vvMMees0vv iiSSnnxxNN
-0.0223	c0vvMMs0uunnaa k0aac0iik0oo
-0.0223	c0vvMMxxNN uullii
-0.0223	c0vvNNc0eeng c0iiK0hhuuee
-0.0223	c0vvNNchaallxxLL nneellyvya
-0.0223	c0vvNNcheec0vvK0iiNN yangs0aangxxLL
-0.0223	c0vvNNcheellxxLL t0ees0iiNNhhee
-0.6243	c0vvNNee s0oonnyv
-0.6243	c0vvNNee s0oonnyvk0aa
-0.6243	c0vvNNee s0xxs0xxlloo
-0.6243	c0vvNNee vvP0S0ii
-0.0223	c0vvNNhhyv c0uuwillxxLL
-0.0223	c0vvNNiit0aa !EXIT
-0.0223	c0vvNNk0eet0wevvSSt0aa !EXIT
-0.0223	c0vvNNk0iit0oo vvP0S0vvSSt0aa
-0.0223	c0vvNNp0uuthvv nnxxLLK0xxNN
-0.0223	c0vvNNxi k0vvS0iinnaa
-0.0223	c0vvP0hhaak0ee t0weNNt0aa
-0.0223	c0vvc0vvLLlloo p0vvNNc0yv
-0.0223	c0vvccxxMM k0aaLLp0aaTHmmvvlliilloo
-0.0223	c0vvllii t0ooLLllyv
-0.0223	c0vvllvvt0aak0aannxxNN p0aangmmaangiinnxxNN
-0.0223	c0vvmmaat0aa hhaannxxNN
-0.0223	c0vvmmuuLLt0oollooK0 iillii
-0.0223	c0vvngk0yvLLhhaaNN k0iippxxMMxxLL
-0.0223	c0vvngs0iiNNxxLL phaannxxllaak0oo
-0.0223	c0vvngt0oolloo s0iiLLc0eelloo
-0.0223	c0vvt0oo mmoollxxk0ee
-0.0248	c0wellxxLL c0iixxNN
-0.0223	c0wvSSxxmmyvNN c0ooHHk0eeSSt0aa
-0.0223	c0xxK0 mmuuLLs0eeaaLLxi
-0.0223	c0xxLLk0vvP0k0iimmaaNN hheeSSt0aa
-0.0223	c0xxLLk0vvuuMMxxLL nnxxkkiinnxxNNk0aa
-0.0223	c0xxngoos0iiMMt0oo c0ook0xxMMxxNN
-0.0223	c0xxngs0ooNNnnyvllaannxxNN k0vvLL
-0.0223	ccaaK0ii vvP0S0vvSSt0aa
-0.0223	ccaalliiS0hhaak0ee khoollxxLL
-0.0223	cciiLL lliit0oo
-0.0223	cciiP0cciiLLhhaaNN eeK0cheek0aa
-0.0223	cciik0oo mmaaLLlliik0iillxxLL
-0.0223	cciillxxNNt0aak0oo s0eengk0aaK0t0weSSt0aa
-0.0223	ccooCHk0oo hhaannxxNN
-0.3233	ccooK0 k0aaLLp0aaTHmmvvlliiees0vv
-0.3233	ccooK0 k0iiLLeennxxNN
-0.0223	ccooK0ii hhaaNNp0vvNN
-0.0223	ccooK0xxLL t0eek0oo
-0.0223	ccwet0vvNN mmaaxxLL
-0.3233	ccyvSSnnxxNNc0ii aaLL
-0.3233	ccyvSSnnxxNNc0ii yvLL
-0.1322	chaa s0iik0aaNNii
-0.6243	chaa s0iik0aaNNxxNN
-0.3233	chaaC0aa aaPHs0eeuuk0oo
-0.3233	chaaC0aa t0wic0iik0oo
-0.0223	chaaC0aallaa !EXIT
-0.4994	chaaMM c0ooHHt0aannxxNN
-0.4994	chaaMM k0ooP0t0aa
-0.4994	chaaMM k0wiyvwvSSt0aa
-0.0223	chaaMMwep0aaTHxxLL nnvvMMk0yvt0aap0oommyvNNs0vv
-0.0223	chaaMMxxlloo mmiiaaNNhheeSSt0aa
-0.0223	chaaMMyvhhaaNN yvs0vvngt0xxLLt0oo
-0.0223	chaac0iihhaannxxNN k0vvt0aa
-0.0223	chaalloo k0aaya
-0.0223	chaallxxLL nnooHHchiik0oo
-0.0223	chaangc0ooc0vvK0 phyohhyvNNiik0ii
-0.0223	chaangc0oohhaak0oo lliit0xxMMxxLL
-0.3233	chee c0iingk0vvMMt0aalliillxxLL
-0.3233	chee t0eekkuuk0aa
-0.0223	cheehhaaNNt0aa !EXIT
-0.0223	cheehheeSSt0aa !EXIT
-0.0223	cheelloo c0aaP0c0aannxxNN
-0.0223	cheemmaaNNs0iiK0xxNN hhooNNthaaK0hhaaNN
-0.0223	cheennyvMMhhaaLL s0uup0aaKKee
-0.0223	cheeyvngs0iiNNii nnoongchooNN
-0.0223	cheeyvngs0iiNNiillaaNN iiNNmmuuLLxxNN
-0.0223	cheeyvngs0iiNNk0wa s0vvlloo
-0.0223	chiiLLhhaaNN t0wiee
-0.0223	chiiMMmmuuK0hhaaNN k0vvS0xxlloo
-0.0223	chiiNNk0uueek0ee iiyak0iihheeSSt0aammyvNN
-0.0223	chiic0aanghhee nnooHHxxNN
-0.0223	chiiiik0oo k0aaTHxxNN
-0.0223	chooc0oohhaaLL c0iik0yvngiit0aa
-0.0223	chook0aac0iiP0 s0aaK0c0vvngii
-0.0223	choongcheec0vvK0iiNN mmoos0xxP0xxLL
-0.0223	choop0vvLL ppaaLLlleennxxNN
-0.0223	choos0iinnee c0xxngs0ooNNnnyvllaannxxNN
-0.0223	chuuNNhhyangiinnaa s0iiMMchvvngiihhaaNNthees0vv
-0.4994	chuuhhaaNN hheengwimmaaNNxxLL
-0.4994	chuuhhaaNN k0vvS0xxNN
-0.4994	chuuhhaaNN vvLLk0uuLLxxNN
-0.0223	chuuk0uuhhaak0iit0oo hhaaNNt0aa
-0.0223	chuunnyvllxxLL p0aallaap0ook0oo
-0.0223	chvvNNchvvNNhhaaNN k0vvLLxxMMiivvSSt0aa
-0.0223	chvvNNchvvNNhhii s0eek0iiMMc0iiLLxxLL
-0.0223	chvvngchvvnghhaaNN aallxxMMt0aauuMMxxlloo
-0.0223	chvvngllyanghhaaNN k0aaxxLL
-0.0223	chvvngllyanglliiyvK0xxlloo k0aak0ii
-0.0223	chvvngnnyvNNt0xxLLii nnoongchooNN
-0.0223	chvvngs0ooLLk0aac0iillxxLL kkvvKKvvt0aak0aa
-0.0223	chvvxxMMeennxxNN ppaaLLllii
-0.0223	chweyongs0iiNNiillaannxxNN yvs0vvngxxNN
-0.0223	chxxK0mmyvNNees0vv s0oop0ii
-0.0223	eeK0cheek0aa iiP0s0uuLLee
-0.0223	eeS0t0weNN s0iic0vvLLxxLL
-0.0223	eessxxnnxxNN s0aas0iiLLc0uuxic0vvK0
-0.0223	eet0xxLLii kkaaLLkkaaLLk0vvlliimmyv
-0.0223	eet0xxLLxxNN c0vvNNhhyv
-0.0223	hhaaK0k0yoees0vv t0ooLLaaoonnxxNN
-0.0223	hhaaK0mmaaxxLL s0aallaaMMt0xxLLxxNN
-0.0223	hhaaK0s0eengii t0wevvs0vvt0oo
-0.7212	hhaaLL iiLLii
-0.7212	hhaaLL k0vvt0aa
-0.7212	hhaaLL k0vvya
-0.4089	hhaaLL s0uu
-0.0223	hhaaLLTHaa c0uuk0iit0oo
-0.0223	hhaaLLmmvvnniinnxxNN k0xx
-0.7212	hhaaMMkkee c0iiNNt0aaLLlleek0aa
-0.7212	hhaaMMkkee chvvngs0ooLLk0aac0iillxxLL
-0.7212	hhaaMMkkee k0xxlliik0ee
-0.7212	hhaaMMkkee mmaannyang
-0.7212	hhaaMMkkee oonnxxNN
-1.3445	hhaaNN k0aac0vvngxxLL
-1.3445	hhaaNN k0uus0vvK0ee
-1.3445	hhaaNN k0uus0vvK0eennxxNN
-1.3445	hhaaNN k0vvS0iillaak0oo
-1.0322	hhaaNN k0vvS0iit0aa
-1.3445	hhaaNN mmaallii
-1.3445	hhaaNN mmoos0vvlliik0aa
-1.3445	hhaaNN oolliixi
-1.3445	hhaaNN p0aaLLccxxMMmmaaNN
-1.3445	hhaaNN p0aaLLii
-1.3445	hhaaNN p0vvLL
-1.3445	hhaaNN p0vvNN
-1.3445	hhaaNN s0aaMM
-1.3445	hhaaNN s0aahhwellxxLL
-1.3445	hhaaNN s0aallaaMMxi
-1.3445	hhaaNN s0iiP0
-1.3445	hhaaNN s0ooNNxxlloo
-1.3445	hhaaNN t0xxS0
-1.3445	hhaaNN t0xxS0ii
-1.3445	hhaaNN uuMMkhxxMM
-0.0223	hhaaNNchaaMM s0ees0uullxxLL
-0.0223	hhaaNNchaangiivvSSt0aa !EXIT
-0.3233	hhaaNNk0aauuNNt0ee aaNNC0aa
-0.3233	hhaaNNk0aauuNNt0ee aaNNC0aas0vv
-0.0223	hhaaNNk0aauuNNt0eeee aaNNC0aa
-0.0223	hhaaNNp0vvNN ttvvLLvvc0iik0ii
-0.0223	hhaaNNphyvNNxxlloonnxxNN uulliit0xxLLii
-0.0027	hhaaNNt0aa !EXIT
-0.0223	hhaaNNt0aaNN mmaaLLiit0aa
-0.0223	hhaaNNt0aammyvNN hhaaNN
-0.0223	hhaaNNt0aat0vvk0uuNN !EXIT
-0.0223	hhaaNNyonguuNNxxNN iiMMii
-0.0223	hhaac0aa !EXIT
-0.0223	hhaak0ii tteemmuuNNiit0aa
-1.3233	hhaak0oo c0uuK0xxLL
-1.0110	hhaak0oo iiSSnnxxNN
-1.0110	hhaak0oo iiSSt0aa
-1.0110	hhaak0oo iiSSvvSSt0aa
-1.3233	hhaak0oo k0aaP0S0p0iissaaNN
-1.3233	hhaak0oo mmaaLLthaak0iit0oo
-1.3233	hhaak0oo mmaaNNmmaaNNhhaaNN
-1.3233	hhaak0oo mmuus0xxNN
-1.3233	hhaak0oo nnaat0vvnnii
-1.3233	hhaak0oo ppaaLLk0oo
-1.3233	hhaak0oo s0uuMMk0yvLLii
-1.3233	hhaak0oo t0ooLLaak0aaLL
-1.3233	hhaak0oo uuLLk0iit0oo
-1.3233	hhaak0oo uuLLmmyvNN
-1.3233	hhaak0oo vvs0xxLLllvvngvvs0xxLLllvvng
-1.3233	hhaak0oo wangk0eemmiillxxLL
-1.3233	hhaak0oo !EXIT
-0.0223	hhaak0vvnnaa c0vvC0mmvvK0iillxxLL
-0.0223	hhaalluuhhaalluuk0aa nnvvllxxLL
-0.8674	hhaammyvNN c0vvMMc0vvMM
-0.8674	hhaammyvNN cheemmaaNNs0iiK0xxNN
-0.8674	hhaammyvNN hhaaNNphyvNNxxlloonnxxNN
-0.8674	hhaammyvNN iis0aanghhwannxxNN
-0.8674	hhaammyvNN iit0xxLLxi
-0.8674	hhaammyvNN k0xx
-0.8674	hhaammyvNN ttwichyvnnaak0aallyvk0oo
-0.0223	hhaammyvNNs0vv oohhiillyv
-0.3233	hhaannaa c0iiP0vv
-0.3233	hhaannaa k0aac0iik0oo
-0.0223	hhaannaaxi p0aaLLk0yvNNiiLL
-0.0223	hhaannxxLLlloo phiivv
-0.0223	hhaannxxLLxi p0yvLLt0xxLLt0oo
-0.9254	hhaannxxNN c0iiS0ii
-0.9254	hhaannxxNN iiLLxxLL
-0.9254	hhaannxxNN iis0aangxxLL
-0.9254	hhaannxxNN mmiiiiNNxxLL
-0.9254	hhaannxxNN nnaannxxNN
-0.9254	hhaannxxNN p0vvP0ii
-0.9254	hhaannxxNN s0oolliik0aa
-0.9254	hhaannxxNN t0oongaaNN
-0.0223	hhaat0vvNN c0iingk0vvMMt0aallii
-0.0223	hhaat0vvnnii oonnxxLLxxNN
-0.0223	hhaayaNN c0ooyaK0t0ooLLiivvSSt0aa
-0.6243	hhee c0uuLL
-0.6243	hhee iiP0vvya
-0.6243	hhee k0aac0iik0oo
-0.6243	hhee !EXIT
-0.0223	hheeS0s0aaLL aallee
-0.0223	hheeS0s0aaLLii s0oonnyvxi
-0.0014	hheeSSt0aa !EXIT
-0.0223	hheeSSt0vvnnii hhwallxxLL
-0.0223	hheeSSt0vvnniip0aangmmaangii hhaannaa
-0.0223	hheeSSxxLL ppuuNN
-0.0223	hheeSSxxmmyv k0yvngc0eec0vvK0iiNN
-0.0223	hheeSSxxnnaa nnvvk0uulliinnxxNN
-0.3233	hheek0aa nnwiyvS0nnwiyvS0
-0.3233	hheek0aa s0vvccooK0xxlloo
-0.0223	hheemmvvK0k0iik0aa s0wiP0t0aannxxNN
-0.0223	hheengk0uuLL tteemmaaNN
-0.0223	hheengwiee xihhee
-0.0223	hheengwillxxLL thoonghhee
-0.0223	hheengwimmaaNNxxLL ssaaHHaa
-0.3233	hhees0vv nnee
-0.3233	hhees0vv t0weLL
-0.0223	hhees0vvK0xxLL k0vvchiiNN
-0.3233	hheet0oo k0xxllvvHHt0aa
-0.3233	hheet0oo mmooS0
-0.0223	hhiiMMii t0xxLLmmyv
-0.0223	hhiiMMxi ttxxS0xxLL
-0.0223	hhiiMMxxlloo phiivvnnaaNN
-0.0223	hhooK0xxNN hhyvNNs0iiLLk0waxi
-0.0223	hhooNNthaaK0hhaaNN hhyvNNs0iiLLxxLL
-0.0223	hhoollaaK0hhoollaaK0 c0aaP0hhiiLL
-0.0223	hhuuLLllyunghhaaNN mmuuLLk0vvNNxxLL
-0.0223	hhuuMMchyv nneemmyvNNs0vv
-0.0223	hhuuNNhhuuNNhheec0iinniikkaa s0aac0iillxxLL
-0.3233	hhuuee nnooiiNNxxNN
-0.3233	hhuuee p0aangmmaangiillxxLL
-0.0223	hhvvNNs0iiNNc0vvK0iivvSSt0aak0oo aaLLllyvc0yv
-0.0223	hhvvNNs0iiNNhhaannxxNN p0aaK0t0oonghhyvK0iillaaNN
-0.0223	hhvvNNs0iiNNhhaat0aak0aa k0walloolloo
-0.0223	hhvvS0t0iit0yvSSt0aa !EXIT
-0.0223	hhvvc0vvNNhhaaMMii c0aalliic0aaP0nnxxNN
-0.0223	hhvvk0uuc0vvK0 iiNNmmuuLLxxLL
-0.0223	hhvvlliillxxLL phyvk0oo
-0.0223	hhvvlliittiichvvllvvMM t0ooLLaak0aak0oo
-0.0223	hhvvthaangiit0aa !EXIT
-0.0223	hhwaK0 phuuLLllyvSSt0aa
-0.0223	hhwaLLt0oongee c0iinnaac0ii
-0.0223	hhwaLLt0oongxxlloos0vv k0xxllvvnnxxNN
-0.0223	hhwaNNhheec0iik0oo mmaaLLK0aac0iik0oo
-0.0223	hhwac0aangphuuMMxxLL ssvvya
-0.0223	hhwak0aa nnaaSSt0aa
-0.0223	hhwallxxLL p0vvllvvK0
-0.0223	hhwawvNNiillaak0oo hhaaLL
-0.0223	hhweK0 iilliilloo
-0.0223	hhwit0uuLLllvv p0ook0iit0oo
-0.0223	hhwivvc0aaP0aa kkaat0aaLLK0
-0.0223	hhxiNN s0uuyvMMee
-0.0223	hhxis0eengt0weNN iixi
-0.0110	hhxivvSSt0aa !EXIT
-0.0223	hhxxLLK0p0aallaaMMii p0uuLLvv
-0.0223	hhxxLLllvvt0xxLLvvSSt0aa !EXIT
-0.0223	hhxxMMppvvK0 chiiLLhhaaNN
-0.0223	hhxxNNhhii k0vvc0uuK0xi
-0.0223	hhxxNNt0xxLLvv p0ook0iit0oo
-0.0223	hhxxP0s0uuc0iik0aa mmuuLLxxLL
-0.0223	hhxxTHvvc0yvs0vv c0eemmvvS0t0eelloo
-0.0223	hhxxllxxnnxxNN nneek0aa
-0.0223	hhxxngc0vvngiiyo s0eengk0yennxxNN
-0.0223	hhxxngc0vvngxxNN hhxxngc0vvngiiyo
-0.0223	hhyanghhee k0oohhaaMMxxLL
-0.0223	hhyangk0iik0aa c0vvc0vvLLlloo
-0.0223	hhyangk0iillooP0k0oo aallxxMMt0aauuNN
-0.0223	hhyangk0iilloowvc0iiLL s0uu
-0.0223	hhyvNNk0iic0xxngii nnaat0oollooK0
-0.0223	hhyvNNs0iiLLee t0vv
-0.4994	hhyvNNs0iiLLii c0aaP0choowa
-0.4994	hhyvNNs0iiLLii phyvngp0vvMMhhaak0oo
-0.4994	hhyvNNs0iiLLii t0aangmmyvNNhhaaNN
-0.0223	hhyvNNs0iiLLiillaak0oo hhaaNNt0aa
-0.0110	hhyvNNs0iiLLiit0aa !EXIT
-0.3233	hhyvNNs0iiLLk0wa hhaaMMkkee
-0.3233	hhyvNNs0iiLLk0wa iis0aangii
-0.3233	hhyvNNs0iiLLk0waxi k0waNNk0yellxxLL
-0.3233	hhyvNNs0iiLLk0waxi yvNNk0waNNs0vvngii
-0.3233	hhyvNNs0iiLLxi hhaaNN
-0.3233	hhyvNNs0iiLLxi p0ooK0hhaaP0c0vvK0iik0oo
-0.5551	hhyvNNs0iiLLxxLL iiSSnnxxNN
-0.8674	hhyvNNs0iiLLxxLL k0eechvvK0hhaannxxNN
-0.8674	hhyvNNs0iiLLxxLL k0eehhyvK0hhee
-0.8674	hhyvNNs0iiLLxxLL k0xxlliiMMxxlloossvv
-0.8674	hhyvNNs0iiLLxxLL nnoolleehhaat0we
-0.8674	hhyvNNs0iiLLxxLL p0aallaap0oonnxxNN
-0.3233	hhyvNNs0iiLLxxNN aanniit0aa
-0.3233	hhyvNNs0iiLLxxNN c0aaLL
-0.0223	hhyvNNt0eeiiNNt0xxLLxxNN k0xxc0vv
-0.0223	hhyvS0p0aat0aaK0xxlloo s0eekkii
-0.0223	hhyvngs0vvngee kkwe
-0.0223	hhyvngs0vvnghhaaLL k0vvS0iit0aa
-0.0223	hhyvngs0vvnghhaaNNt0aa !EXIT
-0.0223	hhyvngtheelloo c0vvNNk0eet0wevvSSt0aa
-1.2775	ii ccooK0
-1.2775	ii k0aaLLkkooCHii
-1.2775	ii k0ooc0aang
-1.2775	ii k0uuLL
-1.2775	ii k0xxLLxxLL
-1.2775	ii nnaaLLxxNN
-1.2775	ii nnvvk0uulliik0uuLLeet0aa
-1.2775	ii p0aaMMp0aaTHk0ooLLxxNN
-1.2775	ii p0aangmmaangiit0oo
-1.2775	ii p0aap0oo
-1.2775	ii phuullxxllxxMM
-1.2775	ii s0aaLLp0vvLLhhaak0oo
-1.2775	ii s0aaNNk0wa
-1.2775	ii s0ees0aangees0vv
-1.2775	ii s0oos0vvLLii
-1.2775	ii t0ooLLllee
-1.2775	ii t0xxLLp0uuLLnnooLLiimmaaNNkhxxMM
-1.2775	ii yvngk0aaMMxxNN
-0.0223	iiK0k0oo mmuunnooNNeennxxNN
-0.0223	iiK0nnxxNN mmuuLL
-0.0223	iiLL iiSSnnii
-0.0223	iiLLK0k0oo k0vvk0iiees0vv
-0.0223	iiLLK0nnxxNN t0oongs0iiee
-0.0223	iiLLK0vv c0uuLL
-0.0110	iiLLc0ee k0aangc0vvMMk0iixi
-0.0223	iiLLc0vvNNee s0aallaaMMxxLL
-0.3233	iiLLii iiSSvvSSt0aa
-0.3233	iiLLii mmuuvvS0iiNNk0aallxxLL
-0.0223	iiLLiivvSSt0aa !EXIT
-0.1871	iiLLs0aang s0eenghhwaLLees0vv
-0.4994	iiLLs0aang s0eenghhwaLLxi
-0.0223	iiLLs0aangc0vvK0 s0aaLLMMxxLL
-0.4994	iiLLs0aangc0vvK0iiNN s0aaLLMMees0vv
-0.4994	iiLLs0aangc0vvK0iiNN s0aaLLMMxi
-0.4994	iiLLs0aangc0vvK0iiNN vvNNvvllxxLL
-0.0223	iiLLs0iic0vvK0iiNN k0vvTHchiilleeiiLL
-0.3233	iiLLt0aaNN c0vvNNchaallxxLL
-0.3233	iiLLt0aaNN hhees0vvK0xxLL
-0.0223	iiLLt0oo vvP0S0vvSSt0aa
-0.0223	iiLLt0xxLLii aaP0chuuK0t0wevv
-0.0223	iiLLt0xxLLp0oot0aannxxNN aallxxMMt0aaP0k0vvnnaa
-0.0223	iiLLvvnnaa phaaLLccaaK0phaaLLccaaK0
-0.0223	iiLLvvnnaak0oo mmaaLLaaSSt0aa
-0.0223	iiLLvvs0vvSSt0aa !EXIT
-0.7212	iiLLxxLL c0iiK0c0vvP0
-0.7212	iiLLxxLL k0xxt0eelloo
-0.7212	iiLLxxLL kkxxNNHHiiMMvvP0S0ii
-0.7212	iiLLxxLL mmaangk0aaK0hhaak0oo
-0.7212	iiLLxxLL yvS0p0ook0oo
-0.0223	iiMMii chiiMMmmuuK0hhaaNN
-0.0223	iiNNc0ee t0aa
-0.0223	iiNNc0eennxxNN chooc0oohhaaLL
-0.0223	iiNNhhees0vv s0aaLLaak0aaLL
-0.0223	iiNNk0aaNNxxLL wihhaaNN
-0.0223	iiNNk0yvK0 hhyvngs0vvngee
-0.0223	iiNNmmuuLLt0xxLLxxLL s0vvLLc0vvnghhaaMMxxlloossvv
-0.0223	iiNNmmuuLLxxLL s0vvLLc0vvnghhaak0oo
-0.0223	iiNNmmuuLLxxNN k0xxllxxLL
-0.3233	iiNNphuuMMxxLL t0aaKKaa
-0.3233	iiNNphuuMMxxLL t0xxllvvnneek0ee
-0.3233	iiNNs0eengxi eeS0t0weNN
-0.3233	iiNNs0eengxi s0uuMMk0yvc0iiNN
-0.0223	iiNNt0uulloo k0ooT0
-0.0223	iiP0ees0vv k0vvchiiLLk0oo
-0.0223	iiP0s0uuLLee hhxxLLllvvt0xxLLvvSSt0aa
-0.0223	iiP0vvya hhaak0oo
-0.0223	iiP0xxNN mmuut0vvMMt0xxLLii
-0.3233	iiSSc0ii aaNNHHnnxxnnya
-0.3233	iiSSc0ii aaNNHHxxNNk0aa
-0.0223	iiSSk0eeSSvv !EXIT
-0.0223	iiSSk0oo k0uuNNt0eek0uuNNt0ee
-0.0223	iiSSnnii !EXIT
-0.0223	iiSSnnoollaammyvNN aac0iillaangiinnxxNN
-1.1684	iiSSnnxxNN c0eek0wac0vvMMeellxxLL
-1.1684	iiSSnnxxNN k0vvLL
-1.1684	iiSSnnxxNN k0vvS0iit0aa
-1.1684	iiSSnnxxNN k0vvS0p0oot0aa
-1.1684	iiSSnnxxNN k0vvS0xxNN
-1.1684	iiSSnnxxNN k0vvya
-1.1684	iiSSnnxxNN k0xxllvvNN
-0.6763	iiSSnnxxNN k0xxt0eelloo
-1.1684	iiSSnnxxNN k0xxt0eellooxi
-1.1684	iiSSnnxxNN mmoos0xxP0xxLL
-1.1684	iiSSnnxxNN mmuuK0c0vvngp0aaTHiillaammyvNN
-1.1684	iiSSnnxxNN yvPH
-0.0223	iiSSnnxxNNc0iit0oo mmooLLllaaSSt0aa
-0.0110	iiSSnnxxNNk0aa hhaammyvNN
-0.0015	iiSSt0aa !EXIT
-0.0223	iiSSt0aak0aa k0xxnnyang
-0.0223	iiSSt0aak0oo hheeSSt0aa
-0.0223	iiSSt0oollooK0 vvttvvNN
-0.0223	iiSSt0vvNN p0aangmmaangiit0aa
-0.7212	iiSSvv c0wvSSxxmmyvNN
-0.7212	iiSSvv s0oonnyvk0aa
-0.2291	iiSSvv !EXIT
-0.0223	iiSSvvSSk0oo phiiphyehhaaNN
-0.0223	iiSSvvSSk0uunnaa !EXIT
-0.3233	iiSSvvSSnnxxNNt0ee chweyongs0iiNNiillaannxxNN
-0.3233	iiSSvvSSnnxxNNt0ee k0xx
-0.0014	iiSSvvSSt0aa !EXIT
-0.4994	iiSSvvSSt0vvNN iiLLxxLL
-0.4994	iiSSvvSSt0vvNN iiyak0iik0aa
-0.4994	iiSSvvSSt0vvNN s0aaLLMMxi
-0.0223	iiSSvvya k0iiLLxxLL
-0.0223	iiSSxxLL s0uu
-0.0223	iiSSxxLLkkaa !EXIT
-0.0223	iiSSxxLLkkaammaannxxNN k0aaS0nnaaNN
-0.0223	iiSSxxMMxxlloo hhees0vv
-0.0223	iic0ee c0vvccxxMM
-0.0223	iic0eennxxNN chvvNNchvvNNhhaaNN
-0.0223	iichiillxxLL s0eengk0aaK0hhaammyvNNs0vv
-0.0223	iichvvllvvMM hhyvNNs0iiLLxxLL
-0.0223	iik0ee mmuus0xxNN
-0.0223	iik0vvS0xxLL s0oollaa
-0.0223	iik0vvS0xxNN s0iik0aa
-0.0223	iik0wangs0uunnxxNN mmiiNNc0ooK0xi
-0.0223	iillees0vv aaiit0xxLLxxNN
-0.0223	iillii t0ooLLllyv
-0.0223	iilliic0vvllii t0ooLLllyv
-0.3233	iilliilloo k0vvNNnnvvook0oo
-0.3233	iilliilloo t0ooLLaas0vvmmyv
-0.0223	iilluuk0ee t0weLL
-0.0223	iilluunnxxNN c0vvNNcheec0vvK0iiNN
-0.0223	iillvvHHk0ee p0ooLL
-0.0223	iillvvLL ttee
-0.6243	iillvvNN c0vvMMxxNN
-0.6243	iillvvNN k0eeuuLLmmuuLLxxLL
-0.6243	iillvvNN nnaaLLiiLLs0uullooK0
-0.6243	iillvvNN ximmiiees0vv
-0.6243	iillvvhhaaNN nneeyongxxNN
-0.6243	iillvvhhaaNN nnxxkkiiMMxxLL
-0.6243	iillvvhhaaNN s0aaLLMMii
-0.6243	iillvvhhaaNN s0aas0iiLLxxLL
-0.0223	iillxxMMt0oo chaaMM
-0.0223	iillxxNN p0ooMM
-0.0223	iillxxk0iikkaac0ii mmeeuu
-0.0223	iillxxnnii mmyvchiiLLccee
-0.0223	iimmii iingtheet0weNN
-0.0223	iingtheet0weNN khxxNN
-0.3233	iinnee c0iiwvc0iik0oo
-0.3233	iinnee mmaannyang
-0.0223	iinnxxNN s0oos0vvLLiinnaa
-0.0223	iip0vvMMs0vvNNxi hhaaK0mmaaxxLL
-0.3233	iip0vvNNeennxxNN kkaaKKt0vvNN
-0.3233	iip0vvNNeennxxNN mmuuLL
-0.0223	iis0aang p0iissaaSSt0aa
-0.0223	iis0aanghhaaNN iiLLiivvSSt0aa
-0.0223	iis0aanghhwannxxNN ppeeaaS0k0iiNN
-0.0223	iis0aangii c0aaLL
-0.6243	iis0aangxxLL c0uungs0iihhaannxxNN
-0.6243	iis0aangxxLL chuuk0uuhhaak0iit0oo
-0.6243	iis0aangxxLL hhyvNNs0iiLLk0wa
-0.6243	iis0aangxxLL s0aas0aangxxlloo
-0.0223	iit0xxLLxi iiLLxxLL
-0.0223	iiuuS0 c0aalliieennxxNN
-0.0223	iiuuS0ii hhwaNNhheec0iik0oo
-0.0223	iiuuS0xxlloo p0vvNNc0yv
-0.0223	iivv nnaak0aallyvnnxxNN
-0.0223	iivvc0yvya hhee
-0.0223	iiwa k0aaTHxxNN
-0.0223	iixi ttxxS0xxLL
-0.0223	iiyak0iihheeSSt0aammyvNN k0xxk0vvS0xxNN
-0.0223	iiyak0iik0aa aanniillaa
-0.3233	iiyak0iillxxLL iiLLK0nnxxNN
